
\data\
ngram 1=10592
ngram 2=29710
ngram 3=1917

\1-grams:
-4.718657	
-4.421855	"(BE)SCHRIJVEN")	-0.30103
-4.421855	"2011_REL2:	-0.30103
-4.421855	"A	-0.30103
-4.421855	"AAN	-0.30103
-4.421855	"AANTREKKELIJKHEID"	-0.30103
-4.421855	"AARDSE	-0.30103
-4.421855	"ATMOSFEER")	-0.30103
-4.421855	"AVISO	-0.30103
-4.421855	"BEIDERZIJDS	-0.30103
-4.421855	"BLAUWE	-0.30103
-4.421855	"BOEK	-0.30103
-4.421855	"BOUW	-0.30103
-4.421855	"BOX	-0.30103
-4.421855	"CSIRO	-0.30103
-4.421855	"DIEPTE"	-0.30103
-4.421855	"DRIJVEN"	-0.30103
-4.421855	"DRIJVEN".	-0.30103
-4.421855	"ECHTE"	-0.30103
-4.421855	"ESTIMATING	-0.30103
-4.421855	"FUNDAMENTAL	-0.30103
-4.421855	"GAPENDE	-0.30103
-4.421855	"GEKEKEN"	-0.30103
-4.421855	"GEOCHEMISCH	-0.30103
-4.421855	"GEOGRAFíE"	-0.30103
-4.421855	"HARD")	-0.30103
-4.421855	"IJSPIRAMIDE"	-0.30103
-4.421855	"IRONSTONE")	-0.30103
-4.421855	"JUST	-0.30103
-4.421855	"KARSTPIJP"	-0.30103
-4.421855	"LAAG"	-0.30103
-4.421855	"LAAG";	-0.30103
-4.421855	"LAVA-STEENWOESTIJN"	-0.30103
-4.421855	"LIGGEN"	-0.30103
-4.421855	"MAAT")	-0.30103
-4.421855	"MOHO"),	-0.30103
-4.421855	"NOORDPOOL".	-0.30103
-4.421855	"ONTPOLDERING"	-0.30103
-4.421855	"ONZE	-0.30103
-4.421855	"PLATTE	-0.30103
-4.421855	"POTPOLDERS".	-0.30103
-4.421855	"SCHEUT"	-0.30103
-4.421855	"SFEREN",	-0.30103
-4.421855	"SLECHT	-0.30103
-4.421855	"SYSTEEM	-0.30103
-4.421855	"TOENDRA")	-0.30103
-4.421855	"TOUWLAVA"	-0.30103
-4.421855	"VRIJWILLIGE	-0.30103
-4.421855	"WANDELROUTE"	-0.30103
-4.421855	"ZACHTE"	-0.30103
-4.421855	"ZAKLAVA"	-0.30103
-4.421855	"ZANDZEE";	-0.30103
-4.421855	"ZWARTE	-0.30103
-4.245757	%	-0.30103
-3.576739	&	-0.3187588
-4.421855	'AANSNIJDEN'	-0.30103
-4.421855	'AFSTAND'	-0.30103
-4.421855	'CCS	-0.30103
-4.421855	'COASTAL	-0.30103
-4.245757	'DICHTBIJ'	-0.4771212
-4.421855	'DOOD'	-0.30103
-4.421855	'GEOFFERDE'	-0.30103
-4.421855	'GESLACHTOFFERD'.	-0.30103
-4.421855	'GEWASSEN'	-0.30103
-4.421855	'INTERNATIONAL	-0.30103
-4.421855	'KOOLSTOFDIOXIDE'-DIFFUSIE	-0.30103
-4.421855	'LAVA'	-0.30103
-4.421855	'LEK'	-0.30103
-4.421855	'MEER	-0.30103
-4.421855	'NABIJ	-0.30103
-4.421855	'NABIJ'	-0.30103
-4.421855	'NATUURLIJKE	-0.30103
-4.421855	'NORMAAL'),	-0.30103
-4.421855	'OFFER':	-0.30103
-4.120814	'OP	-0.39794
-4.421855	'PALAEOCLIMATE'	-0.30103
-4.421855	'PALAEOECOLOGY	-0.30103
-4.421855	'SCHOON	-0.30103
-4.421855	'STRATIGRAPHY	-0.30103
-4.421855	'TERRESTRIAL	-0.30103
-4.245757	'VERAF'	-0.4771213
-4.421855	(!977).	-0.30103
-4.245757	("DICHT	-0.4771212
-4.421855	("GEOLOGISCHE")	-0.30103
-4.421855	("IJLER").	-0.30103
-4.421855	("NOORDPOOL")	-0.30103
-4.421855	("NOORDPOOL-1"	-0.30103
-4.245757	("VER	-0.4771213
-4.421855	("ZACHTER").	-0.30103
-4.421855	('BODEM-VORMENDE')	-0.30103
-4.421855	('COMITéS')	-0.30103
-4.421855	('KLASSIEKE	-0.30103
-4.421855	('POST-COMBUSTION')	-0.30103
-4.421855	('PRE-COMBUSTION')	-0.30103
-4.421855	('SHIFT')	-0.30103
-4.421855	('TECHNISCHE',	-0.30103
-4.421855	(.	-0.30103
-4.421855	(1	-0.30103
-4.421855	(1,45 MM/JR)	-0.30103
-4.421855	(101,3	-0.30103
-4.421855	(1031-1095)	-0.30103
-4.421855	(1031–1095)	-0.30103
-4.421855	(10 925	-0.30103
-4.421855	(1126–1193)	-0.30103
-4.421855	(1254–1324)	-0.30103
-4.421855	(12C)	-0.30103
-4.421855	(135	-0.30103
-4.421855	(135–51	-0.30103
-4.421855	(13C).	-0.30103
-4.421855	(1452-1519).	-0.30103
-4.421855	(1473	-0.30103
-4.421855	(1494-1555)	-0.30103
-4.245757	(14C)	-0.30103
-4.421855	(14N).	-0.30103
-4.421855	(1512-1594)	-0.30103
-4.421855	(1512-1594),	-0.30103
-4.421855	(1527-1598)	-0.30103
-4.421855	(1564	-0.30103
-4.421855	(1580-1626),	-0.30103
-4.421855	(1581)	-0.30103
-4.421855	(1587–1641)	-0.30103
-4.421855	(16	-0.30103
-4.421855	(1629-1695)	-0.30103
-4.421855	(1638	-0.30103
-4.421855	(1638-1686)	-0.30103
-4.421855	(1726	-0.30103
-4.421855	(1726-1797)	-0.30103
-4.421855	(1728)	-0.30103
-4.421855	(1728-1777).	-0.30103
-4.245757	(1769	-0.4771213
-4.421855	(1769-1839)	-0.30103
-4.421855	(1769–1859)	-0.30103
-4.421855	(1770	-0.30103
-4.421855	(1779–1859),	-0.30103
-4.421855	(179	-0.30103
-4.421855	(1809-1864)	-0.30103
-4.245757	(1887-1966).	-0.30103
-4.421855	(1893).	-0.30103
-4.421855	(1920-1930	-0.30103
-4.421855	(1920-1932)	-0.30103
-4.421855	(1938-1939)	-0.30103
-4.421855	(1939)	-0.30103
-4.421855	(1940-1941)	-0.30103
-4.421855	(1941-1942)	-0.30103
-4.245757	(1942)	-0.30103
-4.421855	(1942-1947)	-0.30103
-4.421855	(1947-1950)	-0.30103
-4.421855	(1949)	-0.30103
-4.421855	(1950-1960)	-0.30103
-4.421855	(1956).	-0.30103
-4.421855	(1960-1981)	-0.30103
-4.421855	(1965).	-0.30103
-4.421855	(1970)	-0.30103
-4.421855	(1981-1992)	-0.30103
-4.421855	(1982)	-0.30103
-4.421855	(1988).	-0.30103
-4.245757	(1990),	-0.4771212
-4.421855	(1991).	-0.30103
-4.421855	(1992),	-0.30103
-4.421855	(1992).	-0.30103
-4.421855	(1992-2017)	-0.30103
-4.421855	(1993)	-0.30103
-4.245757	(1993),	-0.30103
-4.421855	(1994).	-0.30103
-4.421855	(1996).	-0.30103
-4.421855	(1998).	-0.30103
-4.120814	(1999),	-0.60206
-4.245757	(1999).	-0.30103
-4.421855	(2.03 MM/JR)	-0.30103
-4.421855	(2000),	-0.30103
-3.94472	(2000).	-0.4259687
-4.421855	(2001).	-0.30103
-4.245757	(2002).	-0.30103
-4.421855	(2003)	-0.30103
-4.245757	(2003),	-0.30103
-4.421855	(2003).	-0.30103
-4.421855	(2004),	-0.30103
-4.120814	(2004).	-0.30103
-4.421855	(2005)	-0.30103
-4.421855	(2005).	-0.30103
-4.421855	(2005):	-0.30103
-4.421855	(2005-6)	-0.30103
-4.421855	(2006)	-0.30103
-4.245757	(2006).	-0.30103
-4.421855	(2007)	-0.30103
-4.421855	(2007),	-0.30103
-4.421855	(2007).	-0.30103
-4.421855	(2008).	-0.30103
-4.421855	(2009)	-0.30103
-4.421855	(2009):	-0.30103
-4.421855	(2010)	-0.30103
-4.421855	(2010).	-0.30103
-4.421855	(2011).	-0.30103
-4.421855	(2011-07-19).	-0.30103
-4.421855	(2011-07-29).	-0.30103
-4.421855	(2013)	-0.30103
-4.421855	(2015),	-0.30103
-4.421855	(2017-NU)	-0.30103
-4.421855	(202	-0.30103
-4.421855	(224–271)	-0.30103
-4.421855	(23-79	-0.30103
-4.421855	(23–79)	-0.30103
-4.245757	(26	-0.30103
-4.421855	(276-194	-0.30103
-4.120814	(2ND	-0.60206
-4.421855	(3-4):	-0.30103
-4.421855	(32-92)	-0.30103
-4.421855	(356	-0.30103
-4.421855	(3850	-0.30103
-4.421855	(3RD	-0.30103
-4.421855	(4,5%)	-0.30103
-4.421855	(410	-0.30103
-4.421855	(481	-0.30103
-4.421855	(485	-0.30103
-4.421855	(5,8%)	-0.30103
-4.421855	(50-60)	-0.30103
-4.421855	(55	-0.30103
-4.421855	(58–51	-0.30103
-4.421855	(5TH	-0.30103
-4.421855	(618–907)	-0.30103
-4.421855	(624	-0.30103
-4.421855	(63	-0.30103
-4.421855	(633–708)	-0.30103
-4.421855	(64	-0.30103
-4.421855	(721	-0.30103
-4.421855	(730-805)	-0.30103
-4.421855	(776–869)	-0.30103
-4.421855	(780–850)	-0.30103
-4.421855	(820–912)	-0.30103
-4.421855	(850–934)	-0.30103
-4.421855	(88,8%),	-0.30103
-4.421855	(8850	-0.30103
-4.421855	(90–168)	-0.30103
-4.421855	(945	-0.30103
-4.421855	(960–1036)	-0.30103
-4.421855	(973-1048)	-0.30103
-4.421855	(973–1052)	-0.30103
-4.421855	(980–1037)	-0.30103
-4.421855	(981-1037)	-0.30103
-4.120814	(=	-0.39794
-4.421855	(??-930)	-0.30103
-4.421855	(??-957)	-0.30103
-4.421855	(A	-0.30103
-4.421855	(A-B-C	-0.30103
-4.421855	(AANWEZIGHEID	-0.30103
-4.421855	(AAR),	-0.30103
-4.421855	(AARDAPPEL)	-0.30103
-4.421855	(AARDE)	-0.30103
-4.421855	(ACCELERATOR	-0.30103
-4.421855	(ACE	-0.30103
-4.421855	(AFGEZET	-0.30103
-4.421855	(AFRIKA).	-0.30103
-4.421855	(AGIV)	-0.30103
-4.245757	(AL	-0.4771212
-4.421855	(AMS)	-0.30103
-4.421855	(APRIL	-0.30103
-4.421855	(AUSTRALIë).	-0.30103
-4.421855	(AVISO).	-0.30103
-4.421855	(AVULSIE,	-0.30103
-4.421855	(B)	-0.30103
-4.120814	(B-HORIZONT)	-0.60206
-4.421855	(BACTERIëN	-0.30103
-4.421855	(BEEK,	-0.30103
-4.421855	(BEFORE	-0.30103
-4.421855	(BEIEREN).	-0.30103
-4.421855	(BEKNOPT	-0.30103
-4.421855	(BENELUX)	-0.30103
-4.421855	(BESTAANDE	-0.30103
-4.421855	(BIJNA	-0.30103
-4.421855	(BIJNA)	-0.30103
-3.576739	(BIJVOORBEELD	-0.3388186
-4.421855	(BIO-ENERGY	-0.30103
-4.421855	(BIOLOGISCHE	-0.30103
-4.421855	(BIOMEN	-0.30103
-4.421855	(BLAUW	-0.30103
-4.421855	(BODEMVRUCHTBAARHEID),	-0.30103
-4.120814	(BOEK	-0.39794
-4.421855	(BOVEN)	-0.30103
-4.245757	(BV.	-0.30103
-4.421855	(C.V.B.)	-0.30103
-4.421855	(C14),	-0.30103
-3.94472	(CA.	-0.3521825
-4.421855	(CHEMISCHE	-0.30103
-4.421855	(CIRCA	-0.30103
-4.421855	(CLINTS),	-0.30103
-4.421855	(CNES/CLS):	-0.30103
-4.421855	(CO2)	-0.30103
-4.421855	(CO2).	-0.30103
-4.421855	(CO3−)	-0.30103
-4.421855	(CONTINENTAAL)	-0.30103
-4.421855	(CSIRO)	-0.30103
-4.421855	(CUSLRG).	-0.30103
-4.421855	(D.G.N.),	-0.30103
-4.421855	(DAT	-0.30103
-3.643686	(DE	-0.3467875
-4.421855	(DEC	-0.30103
-4.120814	(DENK	-0.60206
-4.421855	(DIAPIRISME).	-0.30103
-4.245757	(DIE	-0.30103
-4.421855	(DIEPER	-0.30103
-4.421855	(DIEREN,	-0.30103
-4.421855	(DIT	-0.30103
-4.421855	(DMV	-0.30103
-4.120814	(DOOR	-0.39794
-4.245757	(DOORVERWIJSPAGINA)	-0.4771213
-4.421855	(DRINKWATERPRODUCTIE),	-0.30103
-4.421855	(DUS	-0.30103
-4.421855	(E-HORIZONT)	-0.30103
-3.94472	(EEN	-0.30103
-4.421855	(ELEKTRON,	-0.30103
-4.421855	(ELEMENTEN	-0.30103
-4.120814	(EN	-0.30103
-4.421855	(ENGELSTALIG)	-0.30103
-4.421855	(EOLISCH)	-0.30103
-4.421855	(EOLISCHE)	-0.30103
-4.421855	(ER	-0.30103
-4.421855	(ESR),	-0.30103
-4.421855	(FE3+,	-0.30103
-4.421855	(FLUVIATIEL),	-0.30103
-4.421855	(FORMATIES,	-0.30103
-4.245757	(FOSSIELE)	-0.30103
-4.421855	(FOTOSYNTHESE	-0.30103
-4.421855	(FRACTIE)	-0.30103
-4.421855	(FRANKRIJK).	-0.30103
-4.421855	(FYSISCHE	-0.30103
-4.421855	(GDF	-0.30103
-4.421855	(GEEL),	-0.30103
-4.421855	(GEEN	-0.30103
-4.120814	(GEMIDDELD	-0.39794
-4.421855	(GEOCHEMISCHE	-0.30103
-4.421855	(GEOLOGISCHE	-0.30103
-4.421855	(GEOTHERMISCHE	-0.30103
-4.421855	(GESCHIEDKUNDIGE	-0.30103
-4.245757	(GEWOONLIJK	-0.30103
-4.421855	(GEïLLUSTREERD	-0.30103
-4.421855	(GEïLLUSTREERDE	-0.30103
-4.421855	(GFZ)	-0.30103
-4.421855	(GGG).	-0.30103
-4.421855	(GIS).	-0.30103
-4.245757	(GLACIAAL)	-0.30103
-4.421855	(GLETSCHER),	-0.30103
-4.421855	(GLEY)	-0.30103
-4.421855	(GOG)	-0.30103
-4.421855	(GPS)	-0.30103
-4.421855	(GRIEKS:	-0.30103
-4.421855	(GRIEKSE	-0.30103
-4.421855	(GRIKES	-0.30103
-4.421855	(GROEN)	-0.30103
-4.421855	(GROND)WATER	-0.30103
-4.421855	(GROTERE)	-0.30103
-3.681475	(HET	-0.3245111
-4.421855	(HOEWEL	-0.30103
-4.421855	(HOGER	-0.30103
-4.245757	(HOOGTE	-0.30103
-4.421855	(IBED)	-0.30103
-4.421855	(ICDP)	-0.30103
-4.421855	(IETS	-0.30103
-4.421855	(IJSTIJDEN)	-0.30103
-3.819779	(IN	-0.30103
-4.421855	(IN)STABILITEIT	-0.30103
-4.421855	(INCLINATIE),	-0.30103
-4.421855	(INDIVIDUELE)	-0.30103
-4.421855	(INDONESIë)	-0.30103
-4.421855	(INQUA)	-0.30103
-4.421855	(INSLUITING	-0.30103
-4.421855	(INSTITOET	-0.30103
-4.421855	(INTERNATIONAAL	-0.30103
-4.421855	(IOPD)	-0.30103
-4.421855	(IRSL)	-0.30103
-4.421855	(ISOPACHEN)	-0.30103
-4.421855	(IV)	-0.30103
-4.421855	(JG)	-0.30103
-4.421855	(K-AR),	-0.30103
-4.421855	(K.G.N.),	-0.30103
-4.421855	(KAART	-0.30103
-4.421855	(KAN	-0.30103
-4.421855	(KARSTPIJPEN)	-0.30103
-4.421855	(KERN-	-0.30103
-4.421855	(KLASSIEKE	-0.30103
-4.421855	(KORTWEG	-0.30103
-4.421855	(KOUDE-WARMTEOPSLAG	-0.30103
-4.421855	(KRIJT,	-0.30103
-4.421855	(KUST)VISSERIJ	-0.30103
-4.421855	(LAGEN)	-0.30103
-4.421855	(LANDBOUW)	-0.30103
-4.421855	(LANDVORMEN),	-0.30103
-4.120814	(LANGS	-0.30103
-4.245757	(LATIJN:	-0.30103
-4.421855	(LEENWOORDEN)	-0.30103
-4.421855	(LETTERLIJK	-0.30103
-4.421855	(LETTERLIJKE	-0.30103
-4.421855	(LETTERLIJKE)	-0.30103
-4.421855	(MAAR	-0.30103
-4.421855	(MAGENTA)	-0.30103
-4.421855	(MARIEN)	-0.30103
-4.421855	(MARIEN),	-0.30103
-4.421855	(MAíANDROS).	-0.30103
-4.421855	(MEANDERDOORBRAAK);	-0.30103
-4.421855	(MEDE)VERANTWOORDELIJK	-0.30103
-4.245757	(MEESTAL	-0.30103
-4.421855	(MER)	-0.30103
-4.421855	(METEORISCH)	-0.30103
-4.421855	(MINERALE	-0.30103
-4.245757	(MINERALOGIE:	-0.4771213
-4.421855	(MIST)	-0.30103
-4.421855	(MODEL)	-0.30103
-4.421855	(MOLFRACTIES	-0.30103
-4.421855	(MOLFRACTIES)	-0.30103
-4.421855	(N).	-0.30103
-4.421855	(N2)	-0.30103
-4.421855	(NAAR	-0.30103
-4.421855	(NAGENOEG)	-0.30103
-4.421855	(NAOETSJNO-ISSLEDOVATELSKI	-0.30103
-4.421855	(NDFF).	-0.30103
-4.421855	(NEDERLAND)	-0.30103
-4.421855	(NEDERLANDSE	-0.30103
-4.421855	(NGI)	-0.30103
-4.421855	(NIET	-0.30103
-4.421855	(NIEUW)	-0.30103
-4.421855	(NOET)	-0.30103
-4.245757	(NOG)	-0.30103
-4.421855	(NOORD-ENGELAND),	-0.30103
-4.421855	(NPM).	-0.30103
-4.421855	(NU	-0.30103
-4.421855	(NWO)	-0.30103
-4.421855	(O.A.	-0.30103
-4.421855	(O3)	-0.30103
-4.421855	(OCEANISCHE	-0.30103
-4.023902	(OF	-0.30103
-4.421855	(OMGEZET	-0.30103
-4.421855	(OMTRENT	-0.30103
-4.245757	(ONDER	-0.30103
-4.421855	(ONGEVEER	-0.30103
-4.245757	(OOK	-0.4771213
-4.421855	(OP	-0.30103
-4.421855	(OPGELOSTE)	-0.30103
-4.421855	(OPNIEUW)	-0.30103
-4.421855	(OSL)	-0.30103
-4.421855	(OVER	-0.30103
-4.421855	(OVERTUIGEND)	-0.30103
-4.421855	(OXYFUEL).	-0.30103
-4.421855	(P)	-0.30103
-4.421855	(PALYNOLOGIE),	-0.30103
-4.421855	(PARTIEEL)	-0.30103
-4.421855	(PDF	-0.30103
-4.421855	(PERMAFROST)	-0.30103
-4.421855	(PERTES)	-0.30103
-4.421855	(PERZIë)	-0.30103
-4.421855	(PLAATSELIJKE)	-0.30103
-4.421855	(PROFIELONTWIKKELING),	-0.30103
-4.421855	(PROTOPLANETEN),	-0.30103
-4.421855	(R),	-0.30103
-4.421855	(REPTIELEN)	-0.30103
-4.421855	(RESIDUALE	-0.30103
-4.421855	(RGD)	-0.30103
-4.421855	(ROAD).	-0.30103
-4.421855	(RODE	-0.30103
-4.421855	(ROND	-0.30103
-4.421855	(ROOD).	-0.30103
-4.421855	(RUIM	-0.30103
-4.421855	(RUSSISCH:	-0.30103
-4.421855	(SAMEN	-0.30103
-4.421855	(SCHAAL	-0.30103
-4.421855	(SEASONAL	-0.30103
-4.421855	(SEDIMENTAIRE,	-0.30103
-4.421855	(SEVERNAJA	-0.30103
-4.421855	(SEVERNY	-0.30103
-4.421855	(SI),	-0.30103
-4.245757	(SINDS	-0.30103
-4.421855	(SIO2),	-0.30103
-4.421855	(SNR)	-0.30103
-4.421855	(SOMS	-0.30103
-4.421855	(SSN-571)	-0.30103
-4.421855	(STABIEL)	-0.30103
-4.421855	(STERREN,	-0.30103
-4.421855	(STIBOKA),	-0.30103
-4.421855	(STRATIFICATIE),	-0.30103
-4.421855	(STRUCTURELE	-0.30103
-4.421855	(STUWMEREN).	-0.30103
-4.421855	(SUB)HORIZONTALE	-0.30103
-4.421855	(TEFRA)	-0.30103
-4.245757	(TEN	-0.4771212
-4.421855	(TERECHT)	-0.30103
-4.421855	(TEXTUUR	-0.30103
-4.421855	(TIJDELIJKE)	-0.30103
-4.421855	(TL),	-0.30103
-4.421855	(TRANSLATED	-0.30103
-4.421855	(U	-0.30103
-4.421855	(USA)	-0.30103
-4.421855	(USDA	-0.30103
-4.245757	(VAAK	-0.30103
-4.120814	(VAN	-0.30103
-4.245757	(VANAF	-0.30103
-4.421855	(VEETEELT)	-0.30103
-4.421855	(VERDEELD	-0.30103
-4.421855	(VERKLARENDE	-0.30103
-4.120814	(VERNOEMD	-0.60206
-4.421855	(VERONTREINIGD)	-0.30103
-4.421855	(VERRE)	-0.30103
-4.421855	(VLAANDEREN)	-0.30103
-4.421855	(VLOEIBAAR	-0.30103
-4.120814	(VOORAL	-0.30103
-4.421855	(VOORHEEN	-0.30103
-4.421855	(VOORHEEN:	-0.30103
-4.421855	(VSESOJOEZNY	-0.30103
-4.245757	(VUILHEID)	-0.4771213
-4.245757	(VULKANISCH	-0.30103
-4.421855	(WAARBIJ	-0.30103
-4.421855	(WAARIN	-0.30103
-4.421855	(WAARONDER	-0.30103
-4.421855	(WEER)	-0.30103
-4.421855	(WNT).	-0.30103
-4.421855	(WRB)IUSS	-0.30103
-4.421855	(ZEE)WATER.	-0.30103
-4.421855	(ZEER	-0.30103
-4.421855	(ZEER)	-0.30103
-4.421855	(ZELDZAME)	-0.30103
-4.421855	(ZIE	-0.30103
-4.421855	(ZIJ	-0.30103
-4.421855	(ZO	-0.30103
-4.245757	(ZOALS	-0.30103
-4.421855	(ZOGENAAMDE	-0.30103
-4.421855	(ZOMERDIJKEN	-0.30103
-4.421855	(ZOWEL	-0.30103
-4.421855	(±371-287	-0.30103
-4.421855	(ААНИИ)	-0.30103
-4.421855	(ابن	-0.30103
-4.421855	(周達觀)	-0.30103
-4.421855	(張衡,	-0.30103
-4.421855	(張騫,	-0.30103
-4.421855	(淮南子,	-0.30103
-4.421855	)HTTP://WWW.BYSINESS.CO.UK/CLASSICAL_OTHER/ALMUQADDASI.HTM	-0.30103
-4.421855	*	-0.30103
-4.421855	*BIOGEOLOGIE	-0.30103
-4.421855	+30 MGAL	-0.30103
-4.421855	,	-0.30103
-2.589326	-	-0.4038222
-4.245757	-OPSLAG	-0.30103
-4.421855	-OPSLAG.1	-0.30103
-4.421855	-OPSLAG}}	-0.30103
-4.421855	-TRANSPORT	-0.30103
-4.421855	...	-0.30103
-4.421855	.BLZ.	-0.30103
-3.819779	/	-0.30103
-4.421855	0	-0.30103
-4.421855	0%	-0.30103
-4.421855	0,0005%	-0.30103
-4.421855	0,018%	-0.30103
-4.421855	0,038%	-0.30103
-4.421855	0,1	-0.30103
-4.421855	0,1 MM.BBC	-0.30103
-4.421855	0,2 MM	-0.30103
-4.245757	0,5	-0.30103
-4.421855	0,8	-0.30103
-4.421855	0,93%	-0.30103
-4.421855	0-12-257060-X.	-0.30103
-4.421855	0-12-735632-0.	-0.30103
-4.421855	0-19-510521-4.	-0.30103
-4.421855	0-19-850375-X.	-0.30103
-4.421855	0-471-82857-2.	-0.30103
-4.421855	0.02	-0.30103
-4.421855	0.09	-0.30103
-4.421855	0.5	-0.30103
-4.421855	0.55	-0.30103
-4.421855	000)	-0.30103
-3.643686	1	-0.3222193
-4.120814	1%	-0.30103
-4.421855	1,	-0.30103
-4.421855	1,013	-0.30103
-4.421855	1,1	-0.30103
-4.421855	1,2%	-0.30103
-4.421855	1,35×1018	-0.30103
-4.421855	1,386×109 KM³	-0.30103
-4.421855	1,4%	-0.30103
-4.421855	1,4709×108	-0.30103
-4.421855	1,496×108	-0.30103
-4.421855	1,5	-0.30103
-4.120814	1,5%	-0.30103
-4.421855	1,5210×108	-0.30103
-4.421855	1,5 M/S,	-0.30103
-4.421855	1,74 MM/JR,	-0.30103
-4.421855	1,8%	-0.30103
-4.421855	1-2	-0.30103
-4.421855	1.	-0.30103
-4.421855	1.14	-0.30103
-4.421855	1.200	-0.30103
-4.421855	1.7	-0.30103
-4.421855	1/4400	-0.30103
-3.94472	10	-0.3521825
-4.421855	10%	-0.30103
-4.421855	10'	-0.30103
-4.245757	10.000	-0.30103
-4.421855	10.902	-0.30103
-4.421855	10.911	-0.30103
-3.768626	100	-0.3679768
-4.245757	1000	-0.30103
-4.421855	1004	-0.30103
-4.245757	100 000	-0.30103
-4.421855	100 KM	-0.30103
-4.421855	101,325 KPA	-0.30103
-4.421855	1010	-0.30103
-4.421855	1019	-0.30103
-4.421855	1021	-0.30103
-4.421855	1023	-0.30103
-4.421855	1025	-0.30103
-4.421855	1027	-0.30103
-4.421855	1028-1032	-0.30103
-4.421855	105;	-0.30103
-4.421855	106	-0.30103
-4.421855	106,	-0.30103
-4.421855	106,9%	-0.30103
-4.245757	107	-0.30103
-4.421855	107,5	-0.30103
-4.421855	109	-0.30103
-4.245757	10E	-0.4771213
-4.421855	10 000	-0.30103
-4.421855	10 MM	-0.30103
-4.421855	11.000	-0.30103
-4.421855	11000	-0.30103
-4.421855	111-122.	-0.30103
-4.421855	1124	-0.30103
-4.421855	1137	-0.30103
-4.421855	114	-0.30103
-4.245757	1154	-0.30103
-4.023902	12	-0.3679768
-4.421855	12.940	-0.30103
-4.421855	120	-0.30103
-4.421855	120%	-0.30103
-4.421855	12000	-0.30103
-4.421855	122	-0.30103
-4.421855	1271	-0.30103
-4.421855	1295	-0.30103
-4.421855	1297	-0.30103
-4.421855	129VO-130RO	-0.30103
-4.421855	12C-VERHOUDING	-0.30103
-4.245757	12E	-0.4771213
-4.421855	12 742 KM.	-0.30103
-4.421855	13	-0.30103
-4.421855	13%	-0.30103
-4.421855	13,31%	-0.30103
-4.421855	13,9%	-0.30103
-4.421855	130	-0.30103
-4.421855	1300	-0.30103
-4.421855	131RO	-0.30103
-4.421855	137	-0.30103
-4.421855	138–150.	-0.30103
-4.421855	139	-0.30103
-4.245757	13E	-0.30103
-4.421855	14	-0.30103
-4.421855	14-16;	-0.30103
-4.421855	14-METHODE	-0.30103
-4.421855	14.000	-0.30103
-4.421855	14000	-0.30103
-4.421855	1441-1449.	-0.30103
-4.421855	145	-0.30103
-4.421855	1488	-0.30103
-4.245757	1492	-0.30103
-4.421855	1497	-0.30103
-3.324926	14C	-0.3679768
-4.421855	14C-ATOMEN	-0.30103
-4.421855	14C-DATERING	-0.30103
-4.421855	14C-DATERINGEN	-0.30103
-4.421855	14C-GEHALTE	-0.30103
-4.421855	14C-ISOTOOP	-0.30103
-4.421855	14C-NIVEAU	-0.30103
-4.245757	14E	-0.30103
-4.421855	14N),	-0.30103
-3.94472	15	-0.3521825
-4.421855	15',	-0.30103
-4.421855	15,1%	-0.30103
-4.421855	15-19	-0.30103
-4.120814	150	-0.30103
-4.421855	150.	-0.30103
-4.120814	1500	-0.30103
-4.245757	1507	-0.30103
-4.245757	1513	-0.30103
-4.421855	1519	-0.30103
-4.421855	1520	-0.30103
-4.421855	1522	-0.30103
-4.421855	1528	-0.30103
-4.421855	1532	-0.30103
-4.421855	1543)	-0.30103
-4.421855	1550	-0.30103
-4.421855	1570	-0.30103
-4.421855	1589	-0.30103
-4.421855	1590	-0.30103
-4.421855	1592.	-0.30103
-4.421855	1596	-0.30103
-4.421855	1597	-0.30103
-4.421855	15:25	-0.30103
-4.245757	15E	-0.4771213
-4.120814	16	-0.30103
-4.421855	16,8 KM	-0.30103
-4.421855	16-22	-0.30103
-4.421855	1600	-0.30103
-4.421855	1606	-0.30103
-4.421855	160;	-0.30103
-4.421855	1616	-0.30103
-4.421855	161–175.	-0.30103
-4.421855	1634	-0.30103
-4.421855	1642	-0.30103
-4.421855	1642)	-0.30103
-4.421855	16500	-0.30103
-4.421855	1686),	-0.30103
-4.421855	16:25	-0.30103
-4.245757	17	-0.30103
-4.421855	17%	-0.30103
-4.421855	1700	-0.30103
-4.421855	172,	-0.30103
-4.421855	1728	-0.30103
-4.421855	1735	-0.30103
-4.421855	1766	-0.30103
-4.421855	1776	-0.30103
-4.421855	1781-1796	-0.30103
-4.421855	1785	-0.30103
-4.421855	1789	-0.30103
-4.421855	1791	-0.30103
-4.421855	1797)	-0.30103
-4.421855	1798	-0.30103
-4.421855	17 KM	-0.30103
-4.421855	18,6	-0.30103
-4.421855	18.18	-0.30103
-4.421855	180	-0.30103
-4.245757	1800	-0.30103
-4.421855	1802	-0.30103
-4.421855	1810	-0.30103
-4.421855	1811,	-0.30103
-4.421855	1815.	-0.30103
-4.421855	1817	-0.30103
-4.421855	1818	-0.30103
-4.245757	1820	-0.30103
-4.421855	1830	-0.30103
-4.421855	1830,	-0.30103
-4.421855	1832)	-0.30103
-4.421855	1835	-0.30103
-4.421855	1839),	-0.30103
-4.421855	1845.HTTPS://DE.WIKISOURCE.ORG/WIKI/ALEXANDER_VON_HUMBOLDT	-0.30103
-4.421855	1847).	-0.30103
-4.421855	1850	-0.30103
-4.421855	1857	-0.30103
-4.421855	1860	-0.30103
-4.421855	1866	-0.30103
-4.421855	1875	-0.30103
-4.421855	1877	-0.30103
-4.245757	1880	-0.30103
-4.421855	1887	-0.30103
-4.421855	1888	-0.30103
-4.421855	1895	-0.30103
-4.245757	1896	-0.30103
-4.421855	189733B,	-0.30103
-4.421855	18E	-0.30103
-4.245757	19	-0.30103
-4.421855	1902	-0.30103
-4.421855	1908	-0.30103
-4.421855	1910	-0.30103
-4.421855	1911	-0.30103
-4.421855	1912	-0.30103
-4.421855	192	-0.30103
-4.245757	1920	-0.30103
-4.421855	1923	-0.30103
-4.421855	1925	-0.30103
-4.421855	1927-1928	-0.30103
-4.421855	1928	-0.30103
-4.421855	192–198.	-0.30103
-4.421855	193	-0.30103
-4.421855	1932	-0.30103
-4.421855	1932-1938)	-0.30103
-4.421855	1937	-0.30103
-4.245757	1939	-0.30103
-4.245757	194	-0.30103
-4.421855	194-195.	-0.30103
-4.421855	1940	-0.30103
-4.245757	1948	-0.30103
-4.421855	1949	-0.30103
-4.421855	195	-0.30103
-4.421855	1950)	-0.30103
-4.421855	1950).	-0.30103
-4.421855	1953:	-0.30103
-4.421855	1955	-0.30103
-4.023902	1958	-0.30103
-4.421855	1959	-0.30103
-4.120814	1960	-0.30103
-4.421855	1963	-0.30103
-4.421855	1966	-0.30103
-4.421855	1966.	-0.30103
-4.421855	1967	-0.30103
-4.421855	1968	-0.30103
-4.421855	1968.	-0.30103
-4.421855	1970	-0.30103
-4.245757	1973	-0.30103
-4.245757	1974	-0.4771213
-4.421855	1974.	-0.30103
-4.421855	1980	-0.30103
-4.421855	1982.	-0.30103
-4.421855	1985	-0.30103
-4.245757	1986	-0.30103
-4.421855	1987.	-0.30103
-4.421855	1988.	-0.30103
-4.421855	1988:	-0.30103
-4.421855	1989	-0.30103
-4.421855	1990	-0.30103
-4.421855	1990.	-0.30103
-4.245757	1991	-0.30103
-4.421855	1991;	-0.30103
-4.245757	1993	-0.30103
-4.421855	1994	-0.30103
-4.120814	1995	-0.30103
-4.421855	1996:	-0.30103
-4.245757	1997	-0.30103
-4.421855	1997.	-0.30103
-4.421855	1998	-0.30103
-4.421855	1998).	-0.30103
-4.421855	1999	-0.30103
-4.421855	1999.	-0.30103
-4.120814	19E	-0.39794
-4.421855	1:20	-0.30103
-4.421855	1:20.000	-0.30103
-4.421855	1:50.000.	-0.30103
-4.421855	1°	-0.30103
-4.023902	2	-0.30103
-4.421855	2)	-0.30103
-4.421855	2,	-0.30103
-4.421855	2,2	-0.30103
-4.421855	2,3	-0.30103
-4.421855	2,3 MB)	-0.30103
-4.245757	2,5	-0.4771213
-4.421855	2,5%	-0.30103
-4.421855	2,7 KM	-0.30103
-4.421855	2,9	-0.30103
-4.421855	2,9%	-0.30103
-4.421855	2,9-3,4 MM	-0.30103
-4.245757	2.	-0.30103
-4.421855	2.6	-0.30103
-3.877772	20	-0.3424227
-4.421855	20,95%	-0.30103
-4.421855	20.946%	-0.30103
-4.421855	2000	-0.30103
-4.421855	2000,	-0.30103
-4.421855	2000.	-0.30103
-4.421855	2001/2002	-0.30103
-4.421855	2001;	-0.30103
-4.421855	2002	-0.30103
-4.120814	2003	-0.30103
-4.421855	2003):	-0.30103
-4.421855	2003-2007	-0.30103
-4.245757	2004	-0.30103
-4.421855	2004,	-0.30103
-4.421855	2005	-0.30103
-4.421855	2005.	-0.30103
-4.245757	2006	-0.30103
-4.421855	2006)	-0.30103
-4.421855	2006,	-0.30103
-4.421855	2006;	-0.30103
-4.023902	2007	-0.3679768
-3.768626	2007,	-0.9542425
-4.421855	2007-2008	-0.30103
-3.94472	2008	-0.30103
-4.421855	2008):	-0.30103
-4.421855	2008:	-0.30103
-4.245757	2009	-0.30103
-4.421855	200PX|MINIATUUR|GEOARCHEOLOOG	-0.30103
-4.421855	200PX|MINIATUUR|VELDWERK	-0.30103
-4.421855	200–210.	-0.30103
-4.023902	2010	-0.30103
-4.421855	2010.	-0.30103
-4.120814	2011	-0.39794
-4.421855	2011-02-10.CNES/CLS	-0.30103
-4.421855	2011-07-29.	-0.30103
-4.421855	2011-07-29.WHITE,	-0.30103
-4.421855	2011;	-0.30103
-4.421855	2012	-0.30103
-4.421855	2013.	-0.30103
-4.421855	2014,	-0.30103
-4.245757	2015	-0.30103
-4.120814	2015.	-0.30103
-4.421855	2015/18	-0.30103
-4.245757	2016	-0.4771213
-4.421855	2016,	-0.30103
-4.421855	2017	-0.30103
-4.421855	2018	-0.30103
-4.421855	2019	-0.30103
-4.421855	2020	-0.30103
-4.421855	2050	-0.30103
-3.819779	20E	-0.5228788
-4.421855	20STE	-0.30103
-4.421855	20 CM	-0.30103
-4.120814	21	-0.30103
-4.421855	21%),	-0.30103
-4.421855	2100	-0.30103
-4.421855	21E	-0.30103
-4.421855	22	-0.30103
-4.421855	220	-0.30103
-4.421855	2200	-0.30103
-4.421855	2200 KM,	-0.30103
-4.421855	220–230.	-0.30103
-4.421855	221	-0.30103
-4.421855	228	-0.30103
-4.120814	23	-0.30103
-4.245757	23,439281°	-0.30103
-4.421855	23,4°	-0.30103
-4.421855	230TH	-0.30103
-4.421855	230TH.	-0.30103
-4.245757	230TH/234U/238U	-0.30103
-4.421855	230TH/234U/238U-METHODE.	-0.30103
-4.421855	232–246.	-0.30103
-4.245757	234U	-0.30103
-4.421855	235U,	-0.30103
-4.421855	238U	-0.30103
-4.421855	238U,	-0.30103
-4.120814	24	-0.30103
-4.421855	2400	-0.30103
-4.421855	241,	-0.30103
-4.421855	245.000	-0.30103
-4.245757	25	-0.30103
-4.421855	25'	-0.30103
-4.421855	25.000	-0.30103
-4.421855	25.800	-0.30103
-4.245757	250	-0.30103
-4.421855	25000	-0.30103
-4.421855	2500 KM	-0.30103
-4.245757	250PX|THUMB|RIGHT|RESURGENTIE	-0.4771213
-4.421855	254–265.	-0.30103
-4.421855	26	-0.30103
-4.421855	26%	-0.30103
-4.421855	266–274.	-0.30103
-4.421855	27	-0.30103
-4.421855	27,32	-0.30103
-4.421855	271	-0.30103
-4.245757	275	-0.30103
-4.421855	2800	-0.30103
-4.421855	281-282	-0.30103
-4.421855	286–292.	-0.30103
-4.421855	29,2%	-0.30103
-4.421855	29,53	-0.30103
-4.421855	29,783 KM/S.	-0.30103
-4.421855	2900 KM.	-0.30103
-4.421855	297–298.	-0.30103
-4.421855	2:	-0.30103
-4.245757	2E	-0.30103
-4.421855	2 CM	-0.30103
-4.421855	2 KM	-0.30103
-3.722868	3	-0.30103
-4.421855	3%	-0.30103
-4.421855	3,3	-0.30103
-4.421855	3,3 KM	-0.30103
-4.245757	3,4	-0.4771213
-4.120814	3,5	-0.39794
-4.421855	3,5%	-0.30103
-4.421855	3,5×1013	-0.30103
-4.421855	3,8	-0.30103
-4.421855	3-5	-0.30103
-4.245757	3.	-0.30103
-4.120814	30	-0.30103
-4.245757	30%	-0.30103
-4.421855	30,1%	-0.30103
-4.120814	300	-0.39794
-4.421855	300.000	-0.30103
-4.421855	3000 °C.	-0.30103
-4.421855	300PX|MINIATUUR|SCHEMATISCHE	-0.30103
-4.421855	300 000	-0.30103
-4.421855	306.	-0.30103
-4.421855	30 CM	-0.30103
-4.421855	31	-0.30103
-4.421855	32	-0.30103
-4.421855	32,1%	-0.30103
-4.421855	323	-0.30103
-4.421855	33:	-0.30103
-4.421855	34	-0.30103
-4.421855	34,	-0.30103
-4.421855	347	-0.30103
-4.245757	35	-0.30103
-4.421855	35 KM	-0.30103
-4.421855	365,25636	-0.30103
-4.421855	365,26	-0.30103
-4.421855	366,26	-0.30103
-4.421855	3753	-0.30103
-4.421855	3790	-0.30103
-4.421855	3794	-0.30103
-4.421855	38	-0.30103
-4.421855	380	-0.30103
-4.421855	38°	-0.30103
-4.421855	395–436)	-0.30103
-4.421855	3E	-0.30103
-4.421855	3 CM	-0.30103
-3.681475	4	-0.3521825
-4.421855	4%	-0.30103
-4.421855	4,091	-0.30103
-4.421855	4,56	-0.30103
-4.421855	4,57	-0.30103
-4.421855	4,71%	-0.30103
-4.421855	4.	-0.30103
-4.421855	4.4	-0.30103
-4.023902	40	-0.30103
-3.94472	40%	-0.30103
-4.421855	40.000-60.000	-0.30103
-4.421855	40.000 KM	-0.30103
-3.722868	400	-0.39794
-4.421855	40K)	-0.30103
-4.421855	40 000	-0.30103
-3.768626	41,	-0.30103
-4.421855	410	-0.30103
-4.421855	413 000	-0.30103
-4.421855	41 000	-0.30103
-4.421855	422	-0.30103
-4.421855	43	-0.30103
-4.421855	435–446.	-0.30103
-4.421855	44-45,	-0.30103
-4.421855	4400	-0.30103
-4.421855	4500	-0.30103
-4.421855	47%	-0.30103
-4.023902	4E	-0.69897
-4.421855	4TH	-0.30103
-3.94472	5	-0.30103
-4.421855	5%	-0.30103
-4.421855	5,	-0.30103
-4.421855	5,97×1024 KG.	-0.30103
-4.421855	5.	-0.30103
-4.421855	5.24	-0.30103
-3.94472	50	-0.30103
-4.421855	50,000	-0.30103
-4.245757	50.000	-0.30103
-3.819779	500	-0.3357921
-4.245757	500.000	-0.4771212
-4.023902	5000	-0.30103
-4.421855	50E	-0.30103
-4.421855	50 000	-0.30103
-4.421855	50 KM.HTTP://BOOKS.GOOGLE.BE/BOOKS?ID=1IZAU5_IHMSC&PRINTSEC=FRONTCOVER&DQ=ROMAN+SURVEYING&HL=EN&SA=X&EI=33EFUP7LAYMA2GX2QIHQDQ&REDIR_ESC=Y#V=ONEPAGE&Q=ROMAN%20SURVEYING&F=FALSE	-0.30103
-4.421855	51	-0.30103
-4.421855	51–86.	-0.30103
-4.245757	535	-0.30103
-4.421855	54	-0.30103
-4.421855	545	-0.30103
-4.421855	56	-0.30103
-4.421855	560–636)	-0.30103
-4.421855	57	-0.30103
-4.421855	57.360	-0.30103
-4.421855	572	-0.30103
-4.120814	5736	-0.39794
-4.421855	585	-0.30103
-4.421855	58 000	-0.30103
-4.421855	59	-0.30103
-4.421855	598;	-0.30103
-4.245757	5E	-0.4771213
-4.421855	5 CM	-0.30103
-4.421855	5°	-0.30103
-4.421855	6	-0.30103
-4.421855	6,6	-0.30103
-4.245757	6.	-0.30103
-4.245757	60	-0.30103
-4.421855	60%	-0.30103
-4.245757	60.000	-0.30103
-4.245757	600	-0.30103
-4.421855	61	-0.30103
-4.421855	610	-0.30103
-4.421855	62 000	-0.30103
-4.421855	6339,9 KM,	-0.30103
-4.421855	6356,7 KM.	-0.30103
-4.421855	65	-0.30103
-4.023902	660	-0.30103
-4.421855	68,7%	-0.30103
-4.120814	6E	-0.60206
-4.120814	7	-0.39794
-4.421855	70,8%	-0.30103
-4.421855	700	-0.30103
-4.421855	700 000	-0.30103
-4.421855	71%	-0.30103
-4.245757	75%	-0.4771213
-4.421855	75.000	-0.30103
-4.421855	75.000 KM	-0.30103
-4.421855	78%)	-0.30103
-4.421855	78,08%	-0.30103
-4.421855	78-139)	-0.30103
-4.421855	78.084%	-0.30103
-4.421855	785	-0.30103
-4.421855	7E	-0.30103
-4.421855	7 KM	-0.30103
-4.245757	8	-0.30103
-4.421855	8,5 KM.	-0.30103
-4.421855	8-MISSIE	-0.30103
-4.245757	80	-0.30103
-4.421855	80%	-0.30103
-4.421855	805	-0.30103
-4.421855	815)	-0.30103
-4.421855	84	-0.30103
-4.421855	840	-0.30103
-4.421855	85	-0.30103
-4.421855	862	-0.30103
-4.421855	8844	-0.30103
-4.421855	8E	-0.30103
-4.421855	8TH	-0.30103
-4.421855	8 KM	-0.30103
-4.120814	9	-0.30103
-4.421855	9,2	-0.30103
-4.421855	90	-0.30103
-4.245757	900	-0.30103
-4.421855	9340	-0.30103
-4.421855	94.	-0.30103
-4.421855	95	-0.30103
-4.421855	95%	-0.30103
-4.421855	97,5%	-0.30103
-4.421855	978-0-19-850375-0	-0.30103
-4.421855	978-92-5-108369-7	-0.30103
-4.421855	9780521891486.	-0.30103
-4.421855	982	-0.30103
-4.421855	985	-0.30103
-4.421855	99,22%	-0.30103
-4.421855	99,9%,	-0.30103
-4.421855	995	-0.30103
-4.421855	9E	-0.30103
-3.94472	:	-0.30103
-4.421855	;	-0.30103
-1.501189	</s>
-99	<s>	-0.4453549
-3.444113	=	-0.30103
-3.768626	A	-0.30103
-4.421855	A,	-0.30103
-4.245757	A-HORIZONT	-0.30103
-4.421855	A-HORIZONT,	-0.30103
-4.421855	A-HORIZONT.	-0.30103
-3.94472	A.	-0.30103
-4.245757	A12	-0.30103
-4.421855	AA	-0.30103
-2.538173	AAN	-0.5642715
-4.120814	AAN,	-0.30103
-4.245757	AAN.	-0.30103
-4.421855	AAN.HTTP://WWW.HISTORYTODAY.COM/LOGAN-THOMPSON/ROMAN-ROADS	-0.30103
-4.421855	AAN.HTTPS://WEB.ARCHIVE.ORG/WEB/20060209042605/HTTP://WWW.STRANGEHORIZONS.COM/2002/20020610/MEDIEVAL_MAPS.SHTML	-0.30103
-4.120814	AANDACHT	-0.30103
-4.421855	AANDACHT,	-0.30103
-4.421855	AANDACHT;	-0.30103
-4.421855	AANDEDEN.	-0.30103
-4.245757	AANDEEL	-0.4771213
-4.421855	AANDRIJFT.	-0.30103
-4.421855	AANDRIJVEND	-0.30103
-4.245757	AANDUIDING	-0.30103
-4.421855	AANDUIDINGEN	-0.30103
-4.421855	AANDUIDINGEN.	-0.30103
-4.421855	AANDUIDT),	-0.30103
-4.421855	AANEENGESLOTEN	-0.30103
-4.245757	AANGAAN	-0.4771212
-4.421855	AANGEBRACHTE	-0.30103
-4.245757	AANGEDREVEN	-0.4771212
-4.421855	AANGEDREVEN.	-0.30103
-4.245757	AANGEDUID	-0.4771213
-4.245757	AANGEEFT.	-0.30103
-3.877772	AANGEGEVEN	-0.4771213
-4.421855	AANGEGEVEN,	-0.30103
-4.421855	AANGEGEVEN.	-0.30103
-4.421855	AANGEGROEID	-0.30103
-4.421855	AANGELEGD,	-0.30103
-4.245757	AANGELEGDE	-0.30103
-4.421855	AANGEMAAKT	-0.30103
-4.421855	AANGEMAAKT.	-0.30103
-4.120814	AANGENOMEN	-0.39794
-4.421855	AANGENOMEN,	-0.30103
-4.421855	AANGEPAKT	-0.30103
-4.421855	AANGEPAKT.	-0.30103
-4.421855	AANGEPAST	-0.30103
-4.421855	AANGESLOTEN.	-0.30103
-4.421855	AANGESPANNEN.	-0.30103
-4.421855	AANGESTUURDE	-0.30103
-4.421855	AANGETAST	-0.30103
-4.421855	AANGETEKEND	-0.30103
-4.421855	AANGETOOND	-0.30103
-4.245757	AANGETROFFEN	-0.30103
-4.421855	AANGETROFFEN.CO2-BUISLEIDING	-0.30103
-4.245757	AANGETROKKEN	-0.30103
-4.421855	AANGEVOERD.	-0.30103
-4.120814	AANGEVOERDE)	-0.39794
-4.421855	AANGEVULD	-0.30103
-4.421855	AANGEVULD.	-0.30103
-4.245757	AANGEWEND	-0.30103
-4.245757	AANGEWEZEN	-0.30103
-4.245757	AANGEZIEN	-0.30103
-4.421855	AANGRENZENDE	-0.30103
-4.421855	AANGROEI	-0.30103
-4.421855	AANGROEIDE.	-0.30103
-4.245757	AANGROEIEN	-0.30103
-3.722868	AANII	-0.30103
-4.421855	AANII.	-0.30103
-4.421855	AANLEG	-0.30103
-4.421855	AANLEGGEN	-0.30103
-4.421855	AANLEIDING	-0.30103
-4.421855	AANMAAK	-0.30103
-4.421855	AANMELDEN	-0.30103
-4.421855	AANMERKELIJK	-0.30103
-4.421855	AANMETEN	-0.30103
-4.421855	AANNAMES	-0.30103
-4.421855	AANNEEMT.	-0.30103
-4.421855	AANNEMEN	-0.30103
-4.421855	AANPASSEN	-0.30103
-4.421855	AANSPRAKELIJKHEID	-0.30103
-3.492418	AANTAL	-0.30103
-4.421855	AANTREKKEN.	-0.30103
-4.023902	AANTREKKINGSKRACHT	-0.4771212
-4.421855	AANTROF	-0.30103
-4.421855	AANVAARD.WWW.ASA3.ORG	-0.30103
-4.245757	AANVAARDE	-0.30103
-4.421855	AANVANGSCONCENTRATIE	-0.30103
-4.421855	AANVANGSJAREN	-0.30103
-4.120814	AANVOER	-0.60206
-4.421855	AANVOER.	-0.30103
-4.421855	AANWENDT	-0.30103
-3.768626	AANWEZIG	-0.4149733
-4.421855	AANWEZIG,	-0.30103
-4.421855	AANWEZIG.	-0.30103
-3.94472	AANWEZIGE	-0.30103
-3.94472	AANWEZIGHEID	-0.7781512
-4.421855	AANWIJZINGEN	-0.30103
-4.421855	AANZET	-0.30103
-4.023902	AARD	-0.4771212
-4.245757	AARD,	-0.30103
-4.421855	AARD-WETENSCHAPPELIJKE	-0.30103
-4.421855	AARDAPPEL	-0.30103
-3.643686	AARDAS	-0.30103
-4.421855	AARDAS,	-0.30103
-4.421855	AARDAS.ZIE	-0.30103
-3.643686	AARDATMOSFEER	-0.3222193
-4.245757	AARDATMOSFEER.	-0.30103
-4.023902	AARDBAAN	-0.30103
-4.421855	AARDBAAN,	-0.30103
-3.94472	AARDBEVING	-0.3521825
-3.877772	AARDBEVINGEN	-0.3424227
-4.421855	AARDBEVINGEN,	-0.30103
-4.421855	AARDBEVINGEN.	-0.30103
-2.386405	AARDE	-0.4336556
-4.421855	AARDE"	-0.30103
-4.421855	AARDE".	-0.30103
-4.421855	AARDE)	-0.30103
-4.245757	AARDE),	-0.4771213
-4.245757	AARDE).	-0.30103
-3.492418	AARDE,	-0.3484547
-4.421855	AARDE-OPKOMST	-0.30103
-3.217716	AARDE.	-0.4507923
-4.421855	AARDE.DATA	-0.30103
-4.421855	AARDE.HTTP://WWW.HISTORY.NAVY.MIL/DANFS/T8/TRIESTE.HTM	-0.30103
-4.421855	AARDE.HTTP://WWW.PROFSURV.COM/MAGAZINE/ARTICLE.ASPX?I=703	-0.30103
-4.421855	AARDE.ZIE	-0.30103
-4.421855	AARDE:	-0.30103
-4.421855	AARDE;	-0.30103
-4.421855	AARDEHTTP://GEOGRAPHY.ABOUT.COM/LIBRARY/MISC/BLTIMELINE.HTM	-0.30103
-4.421855	AARDEWERK,	-0.30103
-4.120814	AARDGAS	-0.30103
-4.421855	AARDGAS,	-0.30103
-4.421855	AARDGASNET	-0.30103
-4.421855	AARDGASPUT	-0.30103
-4.421855	AARDGASVELD	-0.30103
-4.421855	AARDGODIN	-0.30103
-4.421855	AARDIG	-0.30103
-4.120814	AARDKERN	-0.30103
-4.421855	AARDKERN)	-0.30103
-4.421855	AARDKERN.	-0.30103
-3.681475	AARDKORST	-0.3853509
-4.120814	AARDKORST,	-0.30103
-4.421855	AARDKORST:1	-0.30103
-4.421855	AARDKORST;	-0.30103
-4.421855	AARDKUNDE	-0.30103
-4.421855	AARDKUNDIG	-0.30103
-4.421855	AARDKUNDIGE	-0.30103
-3.722868	AARDLAGEN	-0.3273589
-4.245757	AARDLAGEN.	-0.30103
-4.421855	AARDMAGNEETVELD	-0.30103
-3.643686	AARDMAGNETISCH	-0.6690068
-4.421855	AARDMAGNETISCHE	-0.30103
-3.94472	AARDMANTEL	-0.3521825
-4.120814	AARDMANTEL.	-0.39794
-4.245757	AARDOLIE	-0.30103
-4.421855	AARDOLIE,	-0.30103
-4.421855	AARDOMTREK	-0.30103
-3.260468	AARDOPPERVLAK	-0.3263359
-3.877772	AARDOPPERVLAK.	-0.3424227
-4.421855	AARDPLATEN	-0.30103
-3.546776	AARDRIJKSKUNDE	-0.3357921
-4.245757	AARDRIJKSKUNDE.	-0.30103
-4.421855	AARDRIJKSKUNDE.}}	-0.30103
-4.421855	AARDRIJKSKUNDE:	-0.30103
-4.421855	AARDRIJKSKUNDIG	-0.30103
-3.768626	AARDRIJKSKUNDIGE	-0.4771212
-4.421855	AARDRIJKSKUNDIGEN	-0.30103
-4.421855	AARDSCHEUREN	-0.30103
-4.421855	AARDSCHOK	-0.30103
-4.245757	AARDSCHOKKEN	-0.30103
-4.421855	AARDSCHORS	-0.30103
-3.576739	AARDSE	-0.3388186
-4.421855	AARDSTRAAL	-0.30103
-4.421855	AARDVERSCHUIVINGEN,	-0.30103
-4.421855	AARDWARMTE	-0.30103
-4.421855	AARDWETENSCHAP	-0.30103
-4.023902	AARDWETENSCHAPPELIJKE	-0.30103
-2.83077	AARDWETENSCHAPPEN	-0.7876966
-3.94472	AARDWETENSCHAPPEN,	-0.30103
-3.877772	AARDWETENSCHAPPEN.	-0.4771213
-4.120814	AARDWETENSCHAPPERS	-0.39794
-4.421855	ABASSIEDEN	-0.30103
-4.421855	ABAUNTZ	-0.30103
-4.421855	ABEL	-0.30103
-4.421855	ABRAHAM	-0.30103
-4.120814	ABRASIE	-0.39794
-3.546776	ABSOLUTE	-0.3802112
-4.245757	ABSOLUUT	-0.30103
-4.421855	ABSORBENS	-0.30103
-4.421855	ABSORBENTEN	-0.30103
-4.245757	ABSORPTIE	-0.4771213
-4.245757	ABU	-0.30103
-4.421855	ABYSSALE	-0.30103
-4.421855	ABîME	-0.30103
-4.245757	ACADEMIC	-0.4771212
-4.023902	ACADEMICUS,	-0.30103
-4.421855	ACADEMIE	-0.30103
-4.421855	ACCELERATION	-0.30103
-4.421855	ACCELERATOR	-0.30103
-4.245757	ACCRETIE	-0.4771213
-4.421855	ACCRETISEREN	-0.30103
-4.245757	ACCUMULATIE	-0.4771213
-4.421855	ACHTEN	-0.30103
-3.877772	ACHTER	-0.3424227
-4.421855	ACHTER,	-0.30103
-4.421855	ACHTER.	-0.30103
-4.421855	ACHTEREEN	-0.30103
-4.421855	ACHTERGELATEN.	-0.30103
-4.421855	ACHTERGELATEN.DUFF	-0.30103
-4.245757	ACHTERGROND	-0.4771213
-4.421855	ACHTERGRONDSTERREN	-0.30103
-4.421855	ACHTERHAALD	-0.30103
-4.120814	ACHTERHALEN	-0.30103
-4.421855	ACHTERKAND	-0.30103
-3.877772	ACHTERLAND	-0.39794
-4.245757	ACHTERLAND")	-0.4771213
-4.245757	ACHTERLIGGENDE	-0.30103
-4.245757	ACHTTIENDE	-0.30103
-4.421855	ACRISOL	-0.30103
-4.421855	ACRISOLEN	-0.30103
-4.023902	ACTIEF	-0.3679768
-4.421855	ACTIEF,	-0.30103
-4.120814	ACTIEVE	-0.30103
-4.120814	ACTIVITEIT	-0.30103
-4.421855	ACTIVITEIT.	-0.30103
-3.94472	ACTIVITEITEN	-0.30103
-4.421855	ADEMHALINGSAPPARATUUR	-0.30103
-4.421855	ADEMNOOD	-0.30103
-4.421855	ADMINISTRATIE	-0.30103
-4.245757	ADMINISTRATIEVE	-0.30103
-4.421855	ADMIRAAL	-0.30103
-4.421855	ADMISSIES	-0.30103
-4.245757	ADRIAEN	-0.30103
-4.421855	ADRIATISCHE	-0.30103
-4.421855	ADVECTIE	-0.30103
-4.421855	AEROBE	-0.30103
-4.421855	AEROSOLE:	-0.30103
-4.421855	AEROSOLEN,	-0.30103
-4.421855	AEROSOLEN.	-0.30103
-3.400647	AF	-0.449969
-4.421855	AF)	-0.30103
-4.120814	AF,	-0.30103
-3.768626	AF.	-0.3679768
-4.421855	AF;	-0.30103
-4.421855	AFBEELDDE	-0.30103
-4.421855	AFBEELDDE.	-0.30103
-4.245757	AFBEELDING	-0.30103
-4.245757	AFBEELDINGEN	-0.30103
-4.421855	AFBREKEN.	-0.30103
-4.421855	AFBUIGING	-0.30103
-4.421855	AFDELING	-0.30103
-4.421855	AFDELINGEN)	-0.30103
-4.421855	AFGAAN,	-0.30103
-4.245757	AFGEBEELD	-0.30103
-4.245757	AFGEBEELD.	-0.30103
-4.421855	AFGEBEELDE	-0.30103
-4.421855	AFGEBOGEN	-0.30103
-4.421855	AFGEBOGEN.	-0.30103
-4.421855	AFGEKOELD	-0.30103
-4.023902	AFGEKORT	-0.30103
-4.120814	AFGELEGEN	-0.30103
-4.120814	AFGELEID	-0.30103
-4.421855	AFGELEIDE	-0.30103
-4.023902	AFGELOPEN	-0.30103
-4.421855	AFGENOMEN	-0.30103
-4.421855	AFGEPLAT	-0.30103
-4.245757	AFGEREMD	-0.4771213
-4.421855	AFGEREMD,	-0.30103
-4.421855	AFGERONDE	-0.30103
-4.421855	AFGESCHEIDEN	-0.30103
-4.421855	AFGESLOTEN,	-0.30103
-4.421855	AFGESLOTEN.	-0.30103
-4.421855	AFGESMOLTEN.	-0.30103
-4.421855	AFGESNEDEN	-0.30103
-4.245757	AFGESTORVEN	-0.30103
-4.421855	AFGEVAARDIGDE	-0.30103
-4.421855	AFGEVANGEN:	-0.30103
-3.681475	AFGEZET	-0.3521825
-4.120814	AFGEZET.	-0.30103
-4.120814	AFGEZETTE	-0.39794
-4.421855	AFGIFTE	-0.30103
-3.643686	AFHANKELIJK	-1.079181
-4.421855	AFHANKELIJKE	-0.30103
-4.421855	AFHANKELIJKHEID	-0.30103
-4.421855	AFKOELEN	-0.30103
-4.421855	AFKOELEN.	-0.30103
-4.245757	AFKOELT,	-0.30103
-4.421855	AFKOMST	-0.30103
-3.681475	AFKOMSTIG	-0.4771213
-4.421855	AFLEIDDE	-0.30103
-4.421855	AFLEIDEN	-0.30103
-4.421855	AFLEZING	-0.30103
-4.421855	AFMETINGEN	-0.30103
-4.421855	AFNAME	-0.30103
-4.421855	AFNEMEN.	-0.30103
-4.421855	AFPALEN.	-0.30103
-4.023902	AFPLATTING	-0.4771212
-4.421855	AFRICA	-0.30103
-3.819779	AFRIKA	-0.3802113
-4.120814	AFRIKA,	-0.30103
-4.421855	AFRIKA.HTTPS://WEB.ARCHIVE.ORG/WEB/20130701090734/HTTP://WWWS.PHIL.UNI-PASSAU.DE/HISTHW/TUTCARTO/ENGLISH/INDEX-FRAMES-EN.HTML	-0.30103
-4.120814	AFSCHEIDEN	-0.30103
-4.421855	AFSCHUIVINGSBREUKEN	-0.30103
-4.245757	AFSLUITENDE	-0.4771213
-4.245757	AFSMELTEN	-0.30103
-4.421855	AFSNIJDINGEN	-0.30103
-4.421855	AFSPELEN.	-0.30103
-4.421855	AFSPOELING	-0.30103
-3.576739	AFSTAND	-0.4191293
-4.421855	AFSTAND'	-0.30103
-4.421855	AFSTAND'.	-0.30103
-4.120814	AFSTANDEN	-0.30103
-4.421855	AFSTROMEND	-0.30103
-4.421855	AFVAART	-0.30103
-4.245757	AFVAL	-0.30103
-4.421855	AFVALGASSEN	-0.30103
-4.421855	AFVALWARMTE	-0.30103
-3.768626	AFVANG	-0.4149733
-4.421855	AFVANGEN	-0.30103
-4.421855	AFVANGEN,	-0.30103
-4.421855	AFVANGEN-TRANSPORTEREN-OPSLAAN.	-0.30103
-4.421855	AFVANGTECHNOLOGIE	-0.30103
-4.421855	AFVANGTECHNOLOGIE.	-0.30103
-4.421855	AFVARENDE	-0.30103
-4.421855	AFVOER	-0.30103
-4.421855	AFVOEREN	-0.30103
-4.421855	AFVOERT.	-0.30103
-4.421855	AFWATEREN.	-0.30103
-3.877772	AFWATERING	-0.3424227
-4.421855	AFWATERING:	-0.30103
-4.421855	AFWATERT	-0.30103
-4.421855	AFWEZIG	-0.30103
-4.421855	AFWEZIG.	-0.30103
-4.245757	AFWIJKEN	-0.4771213
-4.421855	AFWIJKING	-0.30103
-4.421855	AFWIJKINGEN	-0.30103
-4.421855	AFWIJKT	-0.30103
-4.421855	AFWIJKT.	-0.30103
-4.421855	AFWISSELEND	-0.30103
-4.421855	AFZETTE.	-0.30103
-3.877772	AFZETTING	-0.3424227
-4.421855	AFZETTING,	-0.30103
-3.819779	AFZETTINGEN	-0.3802112
-4.421855	AFZETTINGEN,	-0.30103
-4.421855	AFZETTINGSDEELTJES	-0.30103
-3.94472	AFZETTINGSMILIEU	-0.3521825
-4.421855	AFZETTINGSMILIEU'S	-0.30103
-4.245757	AFZETTINGSMILIEUS	-0.4771213
-4.421855	AFZETTINGSPROCES	-0.30103
-4.245757	AFZETTINGSPRODUCTEN.	-0.30103
-4.245757	AFZONDERLIJKE	-0.30103
-4.421855	AGENTSCHAP	-0.30103
-4.421855	AGRICOLA	-0.30103
-4.421855	AGRICULTURE	-0.30103
-4.421855	AGRO	-0.30103
-4.421855	AIN,	-0.30103
-4.421855	AIR	-0.30103
-4.421855	AKADEMIK	-0.30103
-4.421855	AKKERS.	-0.30103
-4.421855	AKOESTISCH	-0.30103
-4.421855	AKSUM	-0.30103
-3.006862	AL	-0.39794
-4.421855	AL-ARD	-0.30103
-4.421855	AL-BALKHI	-0.30103
-4.245757	AL-BIRUNI	-0.30103
-4.421855	AL-BULDAN	-0.30103
-4.421855	AL-CHWARIZMI	-0.30103
-4.421855	AL-DJAHIZ	-0.30103
-4.421855	AL-FAQIH	-0.30103
-4.421855	AL-HAMADANI	-0.30103
-4.245757	AL-IDRISI	-0.30103
-4.421855	AL-ISTAKHRI	-0.30103
-4.421855	AL-MAMALIK	-0.30103
-4.421855	AL-MASALIK	-0.30103
-4.421855	AL-MUQADDASI	-0.30103
-3.94472	AL.	-0.30103
-4.421855	AL3+	-0.30103
-4.421855	ALASKA,	-0.30103
-4.421855	ALASKA.	-0.30103
-4.421855	ALASKAGEBERGTE,	-0.30103
-4.120814	ALEKSANDR	-0.30103
-4.421855	ALEKSEJ	-0.30103
-4.421855	ALERT	-0.30103
-4.245757	ALEXANDER	-0.30103
-4.421855	ALEXANDRE	-0.30103
-4.245757	ALEXANDRIë	-0.30103
-4.421855	ALEXY	-0.30103
-4.421855	ALFABETISCHE	-0.30103
-4.421855	ALFISOLS	-0.30103
-4.120814	ALFRED	-0.60206
-3.681475	ALGEMEEN	-0.3245111
-4.023902	ALGEMENE	-0.3679768
-4.421855	ALGEN	-0.30103
-4.421855	ALGENKWEEK	-0.30103
-4.421855	ALISOL	-0.30103
-4.421855	ALKALIMETALEN	-0.30103
-3.217716	ALLE	-0.3157533
-4.421855	ALLEBEI	-0.30103
-3.380443	ALLEEN	-0.3357921
-4.421855	ALLEENSTAAND	-0.30103
-4.120814	ALLEN	-0.30103
-4.421855	ALLEN-GORDELS,	-0.30103
-4.421855	ALLENGS	-0.30103
-4.421855	ALLERLEI	-0.30103
-4.421855	ALLES	-0.30103
-4.421855	ALLGEMEINE	-0.30103
-4.421855	ALLUVIALE	-0.30103
-4.421855	ALPEN,	-0.30103
-4.421855	ALPHEN	-0.30103
-2.396528	ALS	-0.4840924
-4.421855	ALSMEDE	-0.30103
-4.421855	ALSNOG	-0.30103
-4.421855	ALSOF	-0.30103
-4.421855	ALSWEL	-0.30103
-4.421855	ALTAIR	-0.30103
-4.421855	ALTERNATIEVE	-0.30103
-4.421855	ALTERNATIEVEN	-0.30103
-4.421855	ALTERRA,	-0.30103
-3.608924	ALTIJD	-0.3203352
-4.421855	ALTIMETER	-0.30103
-4.421855	ALTIMETRIE	-0.30103
-4.120814	ALUMINIUM	-0.39794
-4.421855	ALVAR	-0.30103
-4.421855	ALVAR,	-0.30103
-4.421855	ALVARET	-0.30103
-4.421855	ALVORENS	-0.30103
-4.421855	AMATEURVERENIGINGEN	-0.30103
-4.421855	AMAZONE	-0.30103
-4.245757	AMBASSADEUR	-0.30103
-4.421855	AMBROSIUS	-0.30103
-4.421855	AMERICA	-0.30103
-4.421855	AMERICAN:	-0.30103
-4.421855	AMERIGO	-0.30103
-3.768626	AMERIKA	-0.4149733
-4.421855	AMERIKA.	-0.30103
-4.421855	AMERIKA.HTTP://COLLECTIONS.LIB.UWM.EDU/CDM/REF/COLLECTION/AGDM/ID/1224	-0.30103
-4.421855	AMERIKA.HTTP://WWW.BARTLEBY.COM/43/2.HTML	-0.30103
-4.421855	AMERIKA.HTTP://WWW.BIOGRAPHI.CA/EN/BIO.PHP?ID_NBR=65	-0.30103
-4.245757	AMERIKAANSE	-0.30103
-4.421855	AMERIKAANSE,	-0.30103
-4.245757	AMFIBIEëN	-0.30103
-4.421855	AMFIBOOL,	-0.30103
-4.421855	AMINES,	-0.30103
-4.421855	AMINOZUREN	-0.30103
-4.421855	AMINOZUUR	-0.30103
-4.421855	AMINOZUURRACEMISATIEDATERING	-0.30103
-4.245757	AMMONIA	-0.30103
-4.421855	AMMONIAK,	-0.30103
-4.421855	AMMONIAKFABRIEK	-0.30103
-4.421855	AMMONIAKPRODUCTIE	-0.30103
-4.421855	AMS)	-0.30103
-4.245757	AMSTERDAM.	-0.30103
-4.421855	AMSTERDAM:	-0.30103
-4.421855	AMUNDSEN	-0.30103
-4.421855	AMUNDSEN-SCOTT	-0.30103
-4.421855	AN	-0.30103
-4.421855	AN,	-0.30103
-4.421855	ANALOGE	-0.30103
-4.421855	ANALOGIE	-0.30103
-4.421855	ANALOOG	-0.30103
-4.421855	ANALYSE	-0.30103
-4.421855	ANALYSEREN	-0.30103
-4.421855	ANALYSETIJD	-0.30103
-4.421855	ANAXIMANDER	-0.30103
-4.421855	ANAXIMANDER,	-0.30103
-3.260468	AND	-0.3263359
-3.722868	ANDER	-0.30103
-2.803787	ANDERE	-0.354404
-4.421855	ANDERE,	-0.30103
-4.421855	ANDERE:	-0.30103
-4.023902	ANDEREN	-0.30103
-4.421855	ANDEREN,	-0.30103
-3.877772	ANDERS	-0.3424227
-4.421855	ANDERSOM,	-0.30103
-4.421855	ANDERSOM.	-0.30103
-4.421855	ANDERSOORTIGE	-0.30103
-4.245757	ANDERZIJDS	-0.30103
-4.421855	ANDESIET	-0.30103
-4.421855	ANDISOLS	-0.30103
-4.421855	ANDOSOL	-0.30103
-4.421855	ANDRIJA	-0.30103
-4.421855	ANGELES	-0.30103
-4.421855	ANGEREN	-0.30103
-4.421855	ANGKOR	-0.30103
-4.421855	ANIMATIES	-0.30103
-4.421855	ANIONEN	-0.30103
-4.421855	ANOMALIE	-0.30103
-4.421855	ANOMALIEëN	-0.30103
-4.421855	ANORGANISCHE	-0.30103
-4.421855	ANOXISCHE	-0.30103
-4.421855	ANTARCTIC	-0.30103
-3.819779	ANTARCTICA	-0.3802113
-4.421855	ANTARCTICA,	-0.30103
-4.023902	ANTARCTICA.	-0.30103
-4.421855	ANTARCTICAHTTP://WWW.SOUTH-POLE.COM/P0000052.HTM,	-0.30103
-4.421855	ANTARCTIS	-0.30103
-4.421855	ANTARCTIS.	-0.30103
-4.023902	ANTARCTISCH	-0.3679768
-4.120814	ANTARCTISCHE	-0.30103
-4.421855	ANTARKTITSJESKI	-0.30103
-4.421855	ANTHROSOL	-0.30103
-4.421855	ANTIPODE	-0.30103
-4.421855	ANTONOV	-0.30103
-4.245757	ANTROPOGENE	-0.30103
-4.421855	ANYWAY?"	-0.30103
-4.421855	APARTE	-0.30103
-4.421855	APENNIJNEN	-0.30103
-4.245757	APHELIUM	-0.30103
-4.421855	APHELIUM.	-0.30103
-4.421855	APOLLO	-0.30103
-4.421855	APPARATUUR	-0.30103
-4.421855	APPEL,	-0.30103
-4.421855	APPENDIX	-0.30103
-4.421855	APRIL	-0.30103
-4.421855	AQUADUCTEN,	-0.30103
-4.421855	AQUATISCHE	-0.30103
-4.421855	AQUIFERS,	-0.30103
-4.421855	AQUINO	-0.30103
-4.421855	AR	-0.30103
-4.421855	ARABIA	-0.30103
-4.421855	ARABIEREN	-0.30103
-3.819779	ARABISCH	-0.5228787
-4.421855	ARABISCH.	-0.30103
-4.421855	ARABIë	-0.30103
-4.421855	ARAGONIET	-0.30103
-4.421855	ARBOBESLUIT	-0.30103
-4.120814	ARCHEOLOGEN	-0.30103
-4.023902	ARCHEOLOGIE	-0.30103
-4.245757	ARCHEOLOGIE,	-0.30103
-4.023902	ARCHEOLOGISCH	-0.30103
-4.421855	ARCHEOLOGISCH,	-0.30103
-3.94472	ARCHEOLOGISCHE	-0.30103
-4.421855	ARCHEOMAGNETISCHE	-0.30103
-4.421855	ARCHEOMETRIE.	-0.30103
-4.421855	ARCHEïSCHE	-0.30103
-4.421855	ARCHITECTUUR	-0.30103
-4.421855	ARCHIVING,	-0.30103
-4.245757	ARCTIS	-0.4771212
-3.722868	ARCTISCH	-0.39794
-4.120814	ARCTISCHE	-0.30103
-4.421855	ARDENTE	-0.30103
-4.245757	ARE	-0.30103
-4.421855	ARENOSOL	-0.30103
-4.421855	ARGON	-0.30103
-4.421855	ARGON,	-0.30103
-4.421855	ARGON-ARGONDATERING,	-0.30103
-4.421855	ARGUMENTENFABRIEK	-0.30103
-4.421855	ARGUMENTENKAART	-0.30103
-4.245757	ARIDE	-0.30103
-4.421855	ARIDISOLS	-0.30103
-4.245757	ARISTOTELES,	-0.30103
-4.421855	ARIèGE;	-0.30103
-4.421855	ARKTIKA;	-0.30103
-4.421855	ARKTISCH	-0.30103
-4.120814	ARKTITSJESKI	-0.30103
-4.421855	ART	-0.30103
-4.421855	ART,	-0.30103
-4.421855	ARTE	-0.30103
-4.245757	ARTEFACTEN	-0.4771213
-4.421855	ARTHUR	-0.30103
-4.421855	ARTIFICIëLE	-0.30103
-4.023902	ARTIKEL	-0.30103
-4.421855	ARTS	-0.30103
-3.608924	AS	-0.3424227
-4.421855	AS)	-0.30103
-4.421855	AS.	-0.30103
-4.421855	ASKJA	-0.30103
-4.421855	ASKLEURIGE	-0.30103
-4.421855	ASPECT	-0.30103
-4.245757	ASPECTEN	-0.4771213
-4.421855	ASPECTS	-0.30103
-4.421855	ASPHAUG	-0.30103
-4.421855	ASSOCIATED	-0.30103
-4.120814	ASTHENOSFEER	-0.30103
-4.245757	ASTHENOSFEER,	-0.30103
-4.023902	ASTHENOSFEER.	-0.3679768
-4.421855	ASTHENOSFEER;	-0.30103
-4.421855	ASTROCHEMIE	-0.30103
-4.421855	ASTROCHEMIE.	-0.30103
-4.421855	ASTRODYNAMICS	-0.30103
-4.120814	ASTRONOMIE	-0.30103
-4.421855	ASTRONOMIE.	-0.30103
-4.120814	ASTRONOMISCHE	-0.30103
-4.421855	ASTRONOMY	-0.30103
-4.421855	ASYMMETRISCHE	-0.30103
-4.245757	AT	-0.30103
-4.421855	ATLANTISCHE	-0.30103
-4.120814	ATLAS	-0.30103
-4.245757	ATLASSEN	-0.30103
-4.421855	ATMOFIEL	-0.30103
-2.959437	ATMOSFEER	-0.3665316
-4.421855	ATMOSFEER).	-0.30103
-3.722868	ATMOSFEER,	-0.3273589
-3.643686	ATMOSFEER.	-0.3756636
-4.421855	ATMOSFEER;	-0.30103
-4.421855	ATMOSFEERCHEMICI	-0.30103
-4.023902	ATMOSFEERCHEMIE	-0.3679768
-4.245757	ATMOSFERISCHE	-0.30103
-4.421855	ATMOSPHERE	-0.30103
-4.421855	ATMOSPHERE.	-0.30103
-4.421855	ATMOSPHERES	-0.30103
-4.421855	ATMOSPHERES,	-0.30103
-4.120814	ATMOSPHERIC	-0.39794
-4.421855	ATMOSPHäRE	-0.30103
-4.421855	ATMOSPHäRE,	-0.30103
-4.421855	ATMOSPHäRE:	-0.30103
-4.421855	ATMOSPHäRISCHE	-0.30103
-4.421855	ATOL	-0.30103
-4.421855	ATOMEN	-0.30103
-4.421855	ATOOMEXPLOSIE.	-0.30103
-4.421855	AUFLAGE:	-0.30103
-4.421855	AUFZUHELLEN	-0.30103
-4.421855	AUGUSTE	-0.30103
-3.94472	AUGUSTUS	-0.30103
-4.421855	AUSTRALIS	-0.30103
-4.421855	AUSTRALIS,	-0.30103
-4.421855	AUSTRALIë	-0.30103
-4.421855	AUSTRALIëHTTP://GUTENBERG.NET.AU/EBOOKS06/0600631H.HTML,	-0.30103
-4.245757	AUTOMATISCH	-0.30103
-4.421855	AUTONOME	-0.30103
-4.421855	AUTOTROFE	-0.30103
-4.421855	AUX	-0.30103
-4.421855	AVENS	-0.30103
-4.245757	AVICENNA	-0.30103
-4.421855	AVONTUUR	-0.30103
-4.421855	AVULSIE	-0.30103
-4.421855	AXUM	-0.30103
-4.421855	AZIMUTALE	-0.30103
-4.421855	AZIMUTHS.HTTP://ISLAMSCI.MCGILL.CA/RASI/BEA/IBN_IRAQ_BEA.HTM	-0.30103
-4.023902	AZIë	-0.69897
-4.245757	AZIë,	-0.30103
-4.120814	AZIë.	-0.39794
-4.421855	AZTEKEN,	-0.30103
-4.245757	B	-0.30103
-4.421855	B)	-0.30103
-4.120814	B-HORIZONT	-0.30103
-4.421855	B.	-0.30103
-4.421855	B.V.	-0.30103
-4.421855	BA	-0.30103
-3.722868	BAAN	-0.39794
-4.421855	BAANKARAKTERISTIEKEN	-0.30103
-4.421855	BAANVLAK	-0.30103
-4.421855	BABYLON	-0.30103
-4.245757	BABYLON,	-0.30103
-4.421855	BABYLONISCHE	-0.30103
-4.421855	BABYLONIë	-0.30103
-4.421855	BABYLONIëRS	-0.30103
-4.120814	BACTERIëN	-0.39794
-4.421855	BAFFINEILAND	-0.30103
-4.421855	BAGDAD	-0.30103
-4.421855	BAGDAD,	-0.30103
-4.245757	BAKKER	-0.4771212
-4.421855	BAKKER.	-0.30103
-4.421855	BAKSTENEN,	-0.30103
-4.421855	BALAKSJIN	-0.30103
-4.421855	BALANSVERGELIJKING	-0.30103
-4.421855	BALKH	-0.30103
-4.245757	BALLOT	-0.30103
-4.245757	BAMBOE	-0.30103
-4.421855	BAN	-0.30103
-4.421855	BANEN	-0.30103
-4.421855	BANGLADESH	-0.30103
-4.245757	BAR	-0.30103
-4.421855	BAR)	-0.30103
-4.421855	BARBARA	-0.30103
-4.421855	BARCELONA	-0.30103
-4.421855	BARCHAAN	-0.30103
-4.120814	BARENDRECHT	-0.30103
-4.421855	BARENTSZ	-0.30103
-4.421855	BARNES,	-0.30103
-4.421855	BAROMETER,	-0.30103
-4.421855	BARREN,	-0.30103
-4.421855	BARSTJES	-0.30103
-4.421855	BARTOLOMEU	-0.30103
-4.421855	BASALE	-0.30103
-4.421855	BASALT	-0.30103
-4.421855	BASALT,	-0.30103
-4.421855	BASALT.	-0.30103
-4.421855	BASALTISCHE	-0.30103
-3.94472	BASE	-0.7781513
-4.421855	BASED	-0.30103
-4.421855	BASEERDE	-0.30103
-4.421855	BASEVERZADIGING.	-0.30103
-4.421855	BASIC	-0.30103
-4.421855	BASILIUS	-0.30103
-3.492418	BASIS	-0.8016324
-4.421855	BASIS.	-0.30103
-4.421855	BASISCHE	-0.30103
-4.421855	BASISEENHEID	-0.30103
-4.421855	BASSINS	-0.30103
-4.245757	BATHOLIET).	-0.4771213
-4.023902	BATHYMETRIE	-0.30103
-4.421855	BATHYMETRISCHE	-0.30103
-4.421855	BATHYSCAAF	-0.30103
-4.421855	BATIMETRIE	-0.30103
-4.421855	BATTISTA	-0.30103
-4.245757	BC	-0.30103
-4.421855	BC.	-0.30103
-4.421855	BE	-0.30103
-4.421855	BEBOSSING	-0.30103
-4.421855	BEBOUWING.	-0.30103
-4.245757	BECCS	-0.30103
-4.421855	BECCS,	-0.30103
-4.421855	BECKER,	-0.30103
-4.421855	BEDA	-0.30103
-4.245757	BEDACHT	-0.30103
-4.421855	BEDEKKEN	-0.30103
-4.421855	BEDEKKING	-0.30103
-3.94472	BEDEKT	-0.3521825
-4.421855	BEDEKT.	-0.30103
-4.421855	BEDEUTUNG	-0.30103
-4.421855	BEDOELD.	-0.30103
-4.421855	BEDOELT	-0.30103
-3.819779	BEDRAAGT	-0.30103
-4.421855	BEDREIGD	-0.30103
-4.421855	BEDRIJF	-0.30103
-4.421855	BEDRIJFSVOERDER.	-0.30103
-4.421855	BEDRIJVEN	-0.30103
-4.421855	BEDS,	-0.30103
-4.421855	BEDUIDEND	-0.30103
-4.120814	BEEK	-0.39794
-4.120814	BEELD	-0.39794
-4.421855	BEELDANALYSE	-0.30103
-4.245757	BEENDEREN,	-0.30103
-4.245757	BEETJE	-0.30103
-4.421855	BEETJE,	-0.30103
-4.421855	BEGAVEN	-0.30103
-3.681475	BEGIN	-0.4771212
-4.421855	BEGIN'.	-0.30103
-4.421855	BEGINFASE	-0.30103
-4.421855	BEGINNENDE	-0.30103
-4.120814	BEGINT	-0.30103
-3.768626	BEGON	-0.4149733
-4.421855	BEGREEP	-0.30103
-4.421855	BEGRIJPEN.	-0.30103
-3.768626	BEGRIP	-0.3309932
-4.421855	BEGRIP,	-0.30103
-4.023902	BEGRIPPEN	-0.3679768
-4.421855	BEHAIM	-0.30103
-4.023902	BEHALVE	-0.3679768
-4.421855	BEHANDELD	-0.30103
-4.421855	BEHANDELEN.	-0.30103
-4.421855	BEHEER	-0.30103
-4.421855	BEHEERSEN.	-0.30103
-4.421855	BEHEREN	-0.30103
-4.245757	BEHOEFTE	-0.4771213
-4.421855	BEHOORLIJKE	-0.30103
-3.877772	BEHOORT	-0.4771213
-4.245757	BEHOREN	-0.30103
-4.421855	BEHOUD	-0.30103
-4.245757	BEHOUDEN	-0.30103
-4.421855	BEHOUDENS	-0.30103
-3.518747	BEHULP	-1.20412
-3.608924	BEIDE	-0.30103
-4.421855	BEKEKEN	-0.30103
-4.023902	BEKEN	-0.30103
-3.576739	BEKEND	-0.3388186
-4.245757	BEKEND,	-0.30103
-4.245757	BEKEND.	-0.4771213
-4.421855	BEKEND.:	-0.30103
-4.421855	BEKEND.HTTP://OI.UCHICAGO.EDU/OI/PROJ/NIP/PUB93/NSC/NSCFIG7.HTML	-0.30103
-3.546776	BEKENDE	-0.3174204
-4.421855	BEKENDSTAAT	-0.30103
-3.94472	BEKKEN	-0.3521825
-4.120814	BEKKENS	-0.30103
-4.245757	BELANDEN	-0.30103
-4.421855	BELANDEN;	-0.30103
-4.023902	BELANG	-0.3679768
-4.245757	BELANG.	-0.30103
-4.421855	BELANGEN,	-0.30103
-3.643686	BELANGRIJK	-0.3467875
-3.492418	BELANGRIJKE	-0.3309932
-4.421855	BELANGRIJKER	-0.30103
-4.421855	BELANGRIJKERE	-0.30103
-4.421855	BELANGRIJKST	-0.30103
-3.768626	BELANGRIJKSTE	-0.30103
-4.421855	BELASTING.HTTP://CTEXT.ORG/SHANG-SHU	-0.30103
-4.245757	BELEID	-0.4771212
-4.421855	BELGISCH-CONGO	-0.30103
-4.245757	BELGISCHE	-0.30103
-3.819779	BELGIë	-0.3357921
-4.245757	BELGIë.	-0.30103
-4.421855	BELLINGSHAUSEN	-0.30103
-4.421855	BEMANDE	-0.30103
-4.421855	BEMANNINGSLEDEN	-0.30103
-4.421855	BENADEREN	-0.30103
-4.245757	BENADERING	-0.30103
-4.245757	BENADERING,	-0.30103
-4.421855	BENADERINGEN:	-0.30103
-4.023902	BENAMING	-0.30103
-3.94472	BENEDEN	-0.30103
-4.421855	BENEDEN.	-0.30103
-4.421855	BENO	-0.30103
-4.245757	BENODIGDE	-0.30103
-4.421855	BENOEMD	-0.30103
-4.421855	BENOEMEN.	-0.30103
-4.421855	BENTHISCHE	-0.30103
-4.421855	BENUT	-0.30103
-4.421855	BENUTTENTECHNISCHE	-0.30103
-4.421855	BEOORDEELDE	-0.30103
-4.421855	BEOORDELING"	-0.30103
-3.444113	BEPAALD	-0.39794
-4.245757	BEPAALD.	-0.30103
-4.421855	BEPAALD:	-0.30103
-3.492418	BEPAALDE	-0.3152705
-4.421855	BEPAALDEN	-0.30103
-4.245757	BEPAALT	-0.30103
-4.421855	BEPAALT.	-0.30103
-3.877772	BEPALEN	-0.3424227
-4.421855	BEPALEN),	-0.30103
-3.94472	BEPALEN.	-0.3521825
-4.421855	BEPALEND	-0.30103
-3.877772	BEPALING	-0.845098
-4.421855	BEPERKEN.	-0.30103
-4.421855	BEPERKINGEN.	-0.30103
-4.023902	BEPERKT	-0.4771213
-4.245757	BEREIK	-0.4771213
-4.245757	BEREIKEN	-0.30103
-3.94472	BEREIKT	-0.30103
-4.245757	BEREIKTE	-0.30103
-4.421855	BEREIKTEN	-0.30103
-4.421855	BEREKEND	-0.30103
-4.023902	BEREKENDE	-0.4771213
-4.120814	BEREKENEN	-0.30103
-4.421855	BEREKENEN.	-0.30103
-4.421855	BEREKENEN.HTTP://WWW.MADEHOW.COM/VOLUME-4/TOPOGRAPHIC-MAP.HTML	-0.30103
-3.94472	BEREKENINGEN	-0.30103
-4.421855	BERENEILAND	-0.30103
-3.877772	BERG	-0.3424227
-4.245757	BERG,	-0.30103
-4.421855	BERGACHTIG	-0.30103
-4.421855	BERGAFWAARTS,	-0.30103
-4.023902	BERGEN	-0.3679768
-4.245757	BERGEN.	-0.30103
-4.421855	BERGEN.HTTP://WWW.IRANICAONLINE.ORG/ARTICLES/AVICENNA-II	-0.30103
-4.421855	BERGEN.HTTP://WWW.PRESS.UCHICAGO.EDU/BOOKS/HOC/HOC_V2_B1/HOC_VOLUME2_BOOK1_CHAPTER1.PDF	-0.30103
-4.421855	BERGEND	-0.30103
-3.768626	BERGENDE	-0.69897
-4.421855	BERGKETEN,	-0.30103
-4.421855	BERGKETENS	-0.30103
-4.421855	BERHALA	-0.30103
-4.421855	BERICHTEN	-0.30103
-4.421855	BERING	-0.30103
-4.421855	BERINGSTRAAT	-0.30103
-4.421855	BERKEL	-0.30103
-4.421855	BERLIJN	-0.30103
-4.421855	BERLIJN.	-0.30103
-4.421855	BERND	-0.30103
-4.421855	BERNHARDUS	-0.30103
-4.421855	BEROEMD	-0.30103
-4.421855	BEROEMDE	-0.30103
-4.421855	BEROEPSGEBIED	-0.30103
-4.421855	BERUST	-0.30103
-4.421855	BESCHADIGD	-0.30103
-4.245757	BESCHAVINGEN	-0.30103
-4.245757	BESCHERMD	-0.30103
-4.421855	BESCHERMEN	-0.30103
-4.421855	BESCHERMEN.	-0.30103
-4.245757	BESCHERMENDE	-0.30103
-4.421855	BESCHERMING	-0.30103
-4.421855	BESCHERMING.HTTP://GALLICA.BNF.FR/ARK:/12148/BPT6K5658822N/F12.IMAGE	-0.30103
-3.94472	BESCHERMT	-0.544068
-4.421855	BESCHIJNT,	-0.30103
-4.245757	BESCHIKBAAR	-0.30103
-4.421855	BESCHIKBAAR.	-0.30103
-4.421855	BESCHIKBAARHEID	-0.30103
-4.245757	BESCHIKBARE	-0.30103
-4.421855	BESCHIKKING	-0.30103
-4.421855	BESCHIKTE,	-0.30103
-3.877772	BESCHOUWD	-0.60206
-4.245757	BESCHOUWD.	-0.30103
-4.421855	BESCHOUWEN.	-0.30103
-3.492418	BESCHREEF	-0.3899711
-3.643686	BESCHREVEN	-0.5740312
-3.877772	BESCHRIJFT	-0.3424227
-4.120814	BESCHRIJVEN	-0.39794
-4.421855	BESCHRIJVEN,	-0.30103
-4.421855	BESCHRIJVEN.	-0.30103
-4.421855	BESCHRIJVING	-0.30103
-4.421855	BESCHRIJVING,	-0.30103
-4.245757	BESCHRIJVINGEN	-0.30103
-4.421855	BESEF	-0.30103
-4.421855	BESLECHT	-0.30103
-3.492418	BESTAAN	-0.4149733
-4.245757	BESTAAN,	-0.30103
-4.421855	BESTAAN.	-0.30103
-4.421855	BESTAAN;	-0.30103
-4.421855	BESTAAND	-0.30103
-3.576739	BESTAANDE	-0.455932
-3.231504	BESTAAT	-0.5713912
-4.245757	BESTAAT,	-0.30103
-4.245757	BESTAAT.	-0.30103
-4.245757	BESTANDDELEN	-0.30103
-4.421855	BESTE	-0.30103
-4.421855	BESTEMMINGSPLAN	-0.30103
-4.023902	BESTEMMINGSPLANNEN	-0.30103
-4.421855	BESTEMMINGSPLANNEN.	-0.30103
-4.245757	BESTOND	-0.30103
-4.245757	BESTOND.	-0.30103
-4.421855	BESTRATING,	-0.30103
-4.245757	BESTRIJDEN	-0.30103
-3.94472	BESTUDEERD	-0.3521825
-4.421855	BESTUDEERDE	-0.30103
-4.421855	BESTUDEERDE,	-0.30103
-3.768626	BESTUDEERT	-0.3309932
-4.421855	BESTUDEERT,	-0.30103
-3.94472	BESTUDEERT.	-0.30103
-3.608924	BESTUDEREN	-0.4336556
-4.245757	BESTUDEREN,	-0.30103
-4.120814	BESTUDEREN.	-0.30103
-3.608924	BESTUDERING	-0.845098
-4.421855	BESTUURD.	-0.30103
-4.421855	BETA	-0.30103
-4.421855	BETAALDEN	-0.30103
-4.421855	BETAALT	-0.30103
-4.245757	BETEKENEN,	-0.30103
-3.94472	BETEKENIS	-0.30103
-4.421855	BETEKENIS.	-0.30103
-4.245757	BETEKENISSEN	-0.30103
-3.643686	BETEKENT	-0.4101745
-4.120814	BETEKENT.	-0.39794
-3.819779	BETER	-0.3802112
-4.023902	BETERE	-0.30103
-4.421855	BETON	-0.30103
-4.421855	BETON.	-0.30103
-4.421855	BETREDEN.	-0.30103
-4.421855	BETREFFEN	-0.30103
-4.245757	BETREFFENDE	-0.30103
-4.120814	BETREFT	-0.60206
-4.421855	BETREFT).	-0.30103
-4.023902	BETREKKING	-0.69897
-4.023902	BETROF	-0.3679768
-4.421855	BETROKKENHEID	-0.30103
-4.421855	BETROUWBARE	-0.30103
-4.421855	BETWISTE	-0.30103
-4.421855	BEURT	-0.30103
-4.421855	BEURZEN/FONDSEN	-0.30103
-4.421855	BEVAARBARE	-0.30103
-3.681475	BEVAT	-0.3521825
-4.421855	BEVAT.	-0.30103
-4.421855	BEVATTE	-0.30103
-3.722868	BEVATTEN	-0.30103
-4.421855	BEVATTEN,	-0.30103
-4.120814	BEVATTEN.	-0.30103
-4.421855	BEVESTIGING	-0.30103
-4.245757	BEVINDEN	-0.30103
-4.245757	BEVINDEN,	-0.30103
-4.421855	BEVINDEN.	-0.30103
-4.421855	BEVINDENDE	-0.30103
-4.421855	BEVINDINGEN,	-0.30103
-3.643686	BEVINDT	-0.5740312
-4.421855	BEVINDT,	-0.30103
-4.245757	BEVINDT.	-0.30103
-4.421855	BEVLOEIEN	-0.30103
-4.023902	BEVOLKING	-0.3679768
-4.421855	BEVOLKING.	-0.30103
-4.421855	BEVOLKING.HTTP://WWW.IRANICAONLINE.ORG/ARTICLES/ABU-ZAYD-BALKI	-0.30103
-4.421855	BEVOLKINGSDICHTHEID	-0.30103
-4.421855	BEVOLKINGSGEOGRAFIE	-0.30103
-4.421855	BEVOLKINGSGROEI	-0.30103
-4.421855	BEVOLKINGSGROEI,	-0.30103
-4.421855	BEVOLKINGSOMVANG	-0.30103
-4.421855	BEVOLKTE	-0.30103
-4.421855	BEVOND	-0.30103
-4.421855	BEVOND,	-0.30103
-4.421855	BEVOND.	-0.30103
-4.421855	BEVORDERDEN.HTTP://BOOKS.GOOGLE.BE/BOOKS?ID=CJUDAFHPK3OC&PRINTSEC=FRONTCOVER&DQ=RELIGION,+LEARNING+AND+SCIENCE+IN+THE+%27ABBASID+PERIOD&HL=EN&SA=X&EI=KD8GUSCQB4QQYAGEW4GODW&REDIR_ESC=Y#V=ONEPAGE&Q=RELIGION%2C%20LEARNING%20AND%20SCIENCE%20IN%20THE%20'ABBASID%20PERIOD&F=FALSE	-0.30103
-4.421855	BEVORDEREN	-0.30103
-4.245757	BEVORDERING	-0.4771213
-3.877772	BEVROREN	-0.3424227
-4.120814	BEWAARD	-0.30103
-4.245757	BEWEEGT	-0.30103
-4.245757	BEWEGEN	-0.30103
-4.245757	BEWEGEN.	-0.30103
-4.421855	BEWEGEND	-0.30103
-4.245757	BEWEGENDE	-0.30103
-4.245757	BEWEGENDE)	-0.30103
-4.421855	BEWEGENDE),	-0.30103
-4.421855	BEWEGENFOWLER	-0.30103
-3.722868	BEWEGING	-0.30103
-4.421855	BEWEGING:	-0.30103
-4.023902	BEWEGINGEN	-0.69897
-4.421855	BEWERKSTELLIGEN.	-0.30103
-4.421855	BEWERKT	-0.30103
-4.245757	BEWEZEN	-0.30103
-4.245757	BEWIJS	-0.30103
-4.245757	BEWONERS	-0.30103
-4.245757	BEWOONBAAR	-0.30103
-4.421855	BEWOONBAARHEID.	-0.30103
-4.245757	BEWOONDE	-0.30103
-4.421855	BEWUSTE	-0.30103
-4.421855	BEWUSTELOOS	-0.30103
-4.421855	BEWUSTELOOSHEID	-0.30103
-4.421855	BEWUSTMAKING	-0.30103
-4.421855	BEZEILDE	-0.30103
-4.421855	BEZIEN,	-0.30103
-3.94472	BEZIG	-0.7781512
-4.120814	BEZIGHOUDEN.	-0.30103
-3.722868	BEZIGHOUDT	-0.9999999
-4.421855	BEZIGHOUDT,	-0.30103
-4.245757	BEZINKEN	-0.4771213
-4.245757	BEZINKT	-0.30103
-4.120814	BEZIT	-0.39794
-4.421855	BEZIT.	-0.30103
-4.421855	BEZITTEN.	-0.30103
-4.421855	BEZONKEN	-0.30103
-4.421855	BEëINDIGDE	-0.30103
-4.245757	BEïNVLOED	-0.30103
-4.421855	BEïNVLOED,	-0.30103
-4.421855	BEïNVLOEDEN	-0.30103
-4.120814	BEïNVLOEDEN.	-0.30103
-4.245757	BEïNVLOEDT.	-0.30103
-4.421855	BHUMI	-0.30103
-4.421855	BI-	-0.30103
-4.421855	BIBCODE:1998CHGEO.145..161L.	-0.30103
-4.421855	BIBLIOTHEKEN	-0.30103
-4.421855	BIFURCATIE	-0.30103
-2.561496	BIJ	-0.4692247
-4.421855	BIJBELS	-0.30103
-3.94472	BIJDRAGE	-0.3521825
-4.421855	BIJKOMEND	-0.30103
-3.94472	BIJNA	-0.30103
-3.015295	BIJVOORBEELD	-0.3781959
-4.421855	BIJVOORBEELD,	-0.30103
-4.421855	BIJVOORBEELD.	-0.30103
-4.421855	BIJVOORBEELD:	-0.30103
-4.120814	BIJZONDER	-0.30103
-4.245757	BIJZONDERE	-0.30103
-4.421855	BILJOEN	-0.30103
-4.421855	BIMODALE	-0.30103
-4.421855	BINDEN	-0.30103
-4.245757	BINDING	-0.30103
-3.166563	BINNEN	-0.5672979
-4.245757	BINNEN,	-0.30103
-4.421855	BINNEN-	-0.30103
-4.245757	BINNENBOCHT	-0.30103
-4.245757	BINNENBOCHT.	-0.4771213
-4.421855	BINNENDRINGT,	-0.30103
-4.421855	BINNENGEDIJKTE	-0.30103
-4.421855	BINNENGESTROOMD.CO2-ONGELUK	-0.30103
-3.877772	BINNENIN	-0.845098
-4.023902	BINNENKERN	-0.30103
-4.421855	BINNENKERN.	-0.30103
-4.245757	BINNENLEK	-0.30103
-4.421855	BINNENLEK,	-0.30103
-4.421855	BINNENPLANETEN	-0.30103
-4.421855	BINNENSCHIPPERS	-0.30103
-3.722868	BINNENSTE	-1
-4.421855	BINNENSTE,	-0.30103
-4.421855	BINNENUIT)	-0.30103
-4.421855	BINNENVAART	-0.30103
-4.421855	BINNENWATEREN	-0.30103
-4.421855	BINNENWATEREN.	-0.30103
-4.421855	BINNENZEEëN,	-0.30103
-4.421855	BINNENZEEëN.	-0.30103
-4.245757	BIOBRANDSTOF	-0.30103
-4.421855	BIOBRANDSTOFCENTRALES	-0.30103
-4.421855	BIOBRANDSTOFFEN.	-0.30103
-4.245757	BIODIVERSITEIT	-0.30103
-4.421855	BIOGENER	-0.30103
-4.421855	BIOGEOCHEMIE.	-0.30103
-4.421855	BIOGEOGRAFIE.	-0.30103
-4.120814	BIOGEOLOGIE	-0.30103
-4.421855	BIOLOGEN	-0.30103
-3.768626	BIOLOGIE	-0.4149733
-4.421855	BIOLOGIE.	-0.30103
-3.877772	BIOLOGISCHE	-0.30103
-4.421855	BIOLOGISCHE,	-0.30103
-4.421855	BIOMASSA	-0.30103
-3.819779	BIOMEN	-0.4393327
-4.245757	BIOMEN,	-0.30103
-3.421836	BIOSFEER	-0.3399481
-4.245757	BIOSFEER,	-0.30103
-4.421855	BIOSFEER.	-0.30103
-4.421855	BIOSFEER.HTTP://WWW.ACADEMIA.EDU/431525/REALISM_AND_THE_SPIRIT_OF_1919_HALFORD_MACKINDER_GEOPOLITICS_AND_THE_REALITY_OF_THE_LEAGUE_OF_NATIONS	-0.30103
-4.421855	BIOSPHäRE	-0.30103
-4.023902	BIOSTRATIGRAFIE	-0.30103
-4.421855	BIOSTRATIGRAFIE,	-0.30103
-4.421855	BIOSTRATIGRAFIE.	-0.30103
-4.421855	BIOSTRATIGRAFISCHE	-0.30103
-4.421855	BIOTISCHE,	-0.30103
-4.120814	BIOTOOP	-0.39794
-4.421855	BIOTOOP,	-0.30103
-4.421855	BIOTOOP.	-0.30103
-4.421855	BIOTOPEN,	-0.30103
-4.421855	BIOTURBATIE,	-0.30103
-4.421855	BIOZONES).	-0.30103
-4.421855	BISSCHOP	-0.30103
-4.421855	BITTER	-0.30103
-4.421855	BJARNI	-0.30103
-4.421855	BLAASGAT	-0.30103
-4.421855	BLACK	-0.30103
-4.421855	BLAUW	-0.30103
-4.023902	BLAUWE	-0.30103
-4.023902	BLEEF	-0.30103
-4.421855	BLEEF.	-0.30103
-3.94472	BLEEK	-0.30103
-4.421855	BLEIZO.	-0.30103
-4.421855	BLEVEN.	-0.30103
-3.819779	BLIJFT	-0.30103
-4.421855	BLIJFT.	-0.30103
-4.245757	BLIJKBAAR	-0.30103
-4.421855	BLIJKEN	-0.30103
-3.877772	BLIJKT	-0.39794
-3.94472	BLIJVEN	-0.30103
-4.120814	BLIJVEN.	-0.30103
-4.421855	BLIKSEM	-0.30103
-4.421855	BLOKDIAGRAM	-0.30103
-4.421855	BLOKSTRUCTUUR	-0.30103
-4.421855	BLOKVORMIGE	-0.30103
-4.421855	BLOOM,	-0.30103
-3.94472	BLOOT	-0.3521825
-4.421855	BLOOT.	-0.30103
-4.421855	BLOOTGESTAAN	-0.30103
-4.421855	BLOOTLIGGENDE	-0.30103
-4.421855	BLOOTSTAAT.	-0.30103
-4.421855	BLOOTSTELLING	-0.30103
-4.421855	BLUSINSTALLATIE	-0.30103
-4.421855	BLZ.	-0.30103
-4.421855	BLZ.12	-0.30103
-4.421855	BOBBELS	-0.30103
-4.421855	BOCHT	-0.30103
-4.120814	BOCHTEN	-0.30103
-4.421855	BOD	-0.30103
-3.154664	BODEM	-0.3774184
-3.877772	BODEM,	-0.30103
-4.421855	BODEM-,	-0.30103
-3.877772	BODEM.	-0.3424227
-4.421855	BODEM;	-0.30103
-4.421855	BODEMARCHIEF	-0.30103
-4.245757	BODEMBEHEER	-0.30103
-4.421855	BODEMBESCHERMING.	-0.30103
-3.681475	BODEMCLASSIFICATIE	-0.4259688
-4.421855	BODEMCLASSIFICATIESYSTEEM	-0.30103
-4.421855	BODEMCLASSIﬁCATIES,	-0.30103
-4.245757	BODEMDALING	-0.4771213
-4.421855	BODEMDALING.	-0.30103
-4.421855	BODEMDIENSTEN	-0.30103
-4.421855	BODEMDIENSTEN,	-0.30103
-4.421855	BODEMDIENSTEN.	-0.30103
-4.421855	BODEMFASEN	-0.30103
-4.421855	BODEMFAUNA	-0.30103
-4.245757	BODEMFUNCTIES	-0.30103
-4.421855	BODEMGEBRUIK	-0.30103
-4.421855	BODEMGEBRUIK,	-0.30103
-4.421855	BODEMGROEPEN:	-0.30103
-4.421855	BODEMHOOGTE.	-0.30103
-4.421855	BODEMHORIZONTEN	-0.30103
-4.245757	BODEMKAART	-0.30103
-4.245757	BODEMKAARTEN	-0.30103
-4.245757	BODEMKARTERING	-0.30103
-4.421855	BODEMKARTERINGEN.	-0.30103
-4.421855	BODEMKENMERKEN	-0.30103
-4.421855	BODEMKLIMAAT	-0.30103
-3.819779	BODEMKUNDE	-0.5228788
-4.421855	BODEMKUNDE,	-0.30103
-4.421855	BODEMKUNDEDONDEYNE,	-0.30103
-4.421855	BODEMKUNDIG	-0.30103
-4.421855	BODEMKUNDIGEN	-0.30103
-4.421855	BODEMLAGEN	-0.30103
-4.421855	BODEMLAGEN)	-0.30103
-4.421855	BODEMLEVEN	-0.30103
-4.245757	BODEMMATERIAAL	-0.30103
-4.421855	BODEMMATERIAAL:	-0.30103
-4.421855	BODEMMORFOLOGISCHE	-0.30103
-4.421855	BODEMONTWIKKELING	-0.30103
-4.245757	BODEMPROFIEL	-0.30103
-4.421855	BODEMPROFIEL),	-0.30103
-4.421855	BODEMPROFIEL.	-0.30103
-3.079412	BODEMS	-0.6910011
-3.819779	BODEMS,	-0.5228788
-4.421855	BODEMS.	-0.30103
-4.421855	BODEMSERIE.	-0.30103
-4.421855	BODEMSERIES	-0.30103
-4.421855	BODEMSTIJGING	-0.30103
-4.421855	BODEMTYPE	-0.30103
-4.421855	BODEMVORMEND	-0.30103
-3.768626	BODEMVORMENDE	-0.4771213
-4.023902	BODEMVORMING	-0.30103
-4.421855	BODEMVORMING,	-0.30103
-4.421855	BODEMVORMING.	-0.30103
-4.421855	BOEJNITSKI	-0.30103
-3.681475	BOEK	-0.3521825
-4.421855	BOEK.HTTP://CLASSES.BNF.FR/IDRISI/MONDE/INDEX.HTMHTTPS://WEB.ARCHIVE.ORG/WEB/20060626024257/HTTP://WWW.HENRY-DAVIS.COM/MAPS/EMWEBPAGES/219MONO.HTML	-0.30103
-4.421855	BOEKDEEL	-0.30103
-4.421855	BOEKDELEN.HTTP://WWW.STRABO.CA/	-0.30103
-4.245757	BOEKDRUKKUNST	-0.30103
-4.120814	BOEKEN	-0.30103
-4.421855	BOEKEN.	-0.30103
-4.421855	BOEKWERK	-0.30103
-4.421855	BOERAKKER,	-0.30103
-4.421855	BOEREN	-0.30103
-4.421855	BOEZEMS	-0.30103
-4.421855	BOL	-0.30103
-4.421855	BOL,	-0.30103
-4.421855	BOLDRIEHOEKSMETING	-0.30103
-4.120814	BOLVORMIG	-0.39794
-4.421855	BOLVORMIG,	-0.30103
-4.120814	BOLVORMIGE	-0.60206
-4.120814	BOMEN	-0.39794
-4.245757	BOMSCHUIT	-0.30103
-4.245757	BOMSCHUITEN	-0.30103
-4.421855	BOOGGRAAD	-0.30103
-4.421855	BOOMLOZE	-0.30103
-4.421855	BOORD	-0.30103
-4.421855	BOORGAT.	-0.30103
-4.421855	BOORKERN	-0.30103
-4.421855	BOORKERNEN,	-0.30103
-4.421855	BOORMETHODE	-0.30103
-4.421855	BOOTSEN.	-0.30103
-4.421855	BORD	-0.30103
-4.421855	BORD,	-0.30103
-4.421855	BOREALIS.	-0.30103
-4.421855	BOREN	-0.30103
-4.421855	BORING	-0.30103
-4.421855	BORINGEN	-0.30103
-4.421855	BORINGEN.	-0.30103
-4.421855	BORIS	-0.30103
-4.421855	BORT	-0.30103
-4.421855	BOS	-0.30103
-4.245757	BOS,	-0.30103
-4.421855	BOSCH	-0.30103
-4.421855	BOSSEN,	-0.30103
-4.421855	BOTSING	-0.30103
-4.421855	BOUCHES-DU-RHôNE;	-0.30103
-4.421855	BOULDER.	-0.30103
-4.023902	BOUW	-0.30103
-4.421855	BOUWCONCERN	-0.30103
-4.421855	BOUWDE	-0.30103
-4.245757	BOUWEN	-0.30103
-4.421855	BOUWEN;	-0.30103
-4.421855	BOUWLAAG,	-0.30103
-4.421855	BOUWSTOFFEN	-0.30103
-4.421855	BOUWWERKEN	-0.30103
-3.400647	BOVEN	-0.4259687
-4.245757	BOVEN-	-0.4771212
-4.421855	BOVEN.	-0.30103
-4.421855	BOVENAAN	-0.30103
-4.421855	BOVENAF	-0.30103
-3.819779	BOVENDIEN	-0.30103
-4.421855	BOVENGRENS	-0.30103
-4.245757	BOVENGROND	-0.30103
-4.421855	BOVENGROND,	-0.30103
-3.819779	BOVENGRONDSE	-0.3802113
-4.421855	BOVENKANT	-0.30103
-4.023902	BOVENLAAG	-0.30103
-4.421855	BOVENLIGGEND	-0.30103
-4.120814	BOVENMANTEL	-0.30103
-4.421855	BOVENNATUURLIJKE	-0.30103
-4.421855	BOVENSTAANDE	-0.30103
-4.023902	BOVENSTE	-0.3679768
-4.421855	BOVENVERMELDE	-0.30103
-4.421855	BOW	-0.30103
-3.94472	BP	-0.30103
-4.245757	BP,	-0.30103
-4.421855	BP-DATERING	-0.30103
-4.421855	BP-DATERINGEN	-0.30103
-4.421855	BP.	-0.30103
-3.94472	BRACHT	-0.30103
-4.120814	BRACHTEN	-0.30103
-4.421855	BRAK	-0.30103
-4.421855	BRAMABIAU	-0.30103
-4.245757	BRAND	-0.30103
-4.421855	BRANDBLUSAPPARATUUR	-0.30103
-4.421855	BRANDBLUSINSTALLATIE	-0.30103
-4.245757	BRANDSTOF	-0.30103
-4.421855	BRANDSTOF),	-0.30103
-3.608924	BRANDSTOFFEN	-0.3203351
-4.245757	BRANDSTOFFEN,	-0.30103
-4.120814	BRANDSTOFFEN.	-0.30103
-4.421855	BRASSEUR,	-0.30103
-4.421855	BRAZILIë.HTTP://BOOKS.GOOGLE.BE/BOOKS?ID=IZ5TZHXONYCC&PG=RA2-PA133&REDIR_ESC=Y#V=ONEPAGE&Q&F=FALSE	-0.30103
-4.421855	BRAZZA	-0.30103
-4.120814	BREDE	-0.30103
-4.120814	BREDER	-0.30103
-4.421855	BREDERE	-0.30103
-4.421855	BREED	-0.30103
-3.94472	BREEDTE	-0.3521825
-4.245757	BREEDTE,	-0.30103
-4.023902	BREEDTEGRAAD	-0.30103
-4.421855	BREEDTEN	-0.30103
-4.421855	BREEDVOERIG	-0.30103
-4.421855	BREEKT	-0.30103
-4.023902	BREIDDE	-0.4771212
-4.421855	BREIDDEN	-0.30103
-4.421855	BRENGEN	-0.30103
-4.023902	BRENGEN.	-0.3679768
-4.421855	BRENGT,	-0.30103
-4.421855	BRENT	-0.30103
-4.421855	BRETANNIKē	-0.30103
-4.421855	BREUK	-0.30103
-4.421855	BREUKEN	-0.30103
-4.421855	BREUKEN.	-0.30103
-4.421855	BREUKJES	-0.30103
-4.421855	BRIKGRONDEN	-0.30103
-4.421855	BRITISH	-0.30103
-4.245757	BRITSE	-0.30103
-4.421855	BRITTANIA.HTTPS://NL.WIKISOURCE.ORG/WIKI/NEDERLANDSE_VERTALING_VAN_COMMENTARII_DE_BELLO_GALLICO	-0.30103
-4.245757	BRITTANNIë	-0.30103
-4.023902	BROEIKASEFFECT	-0.30103
-4.421855	BROEIKASEFFECT.	-0.30103
-4.421855	BROEIKASEFFECT?	-0.30103
-4.421855	BROEIKASGAS	-0.30103
-4.421855	BROEIKASGASSEN	-0.30103
-4.421855	BROEIKASSEN.	-0.30103
-3.608924	BRON	-0.4771212
-4.421855	BRON,	-0.30103
-4.120814	BRONGEBIED	-0.39794
-4.421855	BRONGNIART	-0.30103
-3.819779	BRONNEN	-0.4393327
-4.421855	BROOD	-0.30103
-4.421855	BROSSE	-0.30103
-4.245757	BROWNLEE	-0.30103
-4.421855	BRUIKBAAR	-0.30103
-4.421855	BRUIN	-0.30103
-4.421855	BRUS	-0.30103
-4.421855	BRY	-0.30103
-4.421855	BUFFER	-0.30103
-4.421855	BUFFEREN	-0.30103
-4.421855	BUFFEREN.	-0.30103
-4.245757	BUIGT	-0.30103
-4.421855	BUISLEIDINGEN	-0.30103
-3.681475	BUITEN	-0.4259687
-4.245757	BUITENBOCHT	-0.30103
-4.421855	BUITENBOCHT,	-0.30103
-4.421855	BUITENBOCHT.	-0.30103
-4.421855	BUITENKANT	-0.30103
-3.722868	BUITENKERN	-0.327359
-4.421855	BUITENKERN.	-0.30103
-4.120814	BUITENLANDSE	-0.60206
-4.245757	BUITENLEK	-0.30103
-4.421855	BUITENLEK.	-0.30103
-4.421855	BUITENPLANETEN	-0.30103
-3.877772	BUITENSTE	-0.60206
-4.421855	BUITENWERELD.	-0.30103
-4.421855	BUIZEN	-0.30103
-4.421855	BUNDEL,	-0.30103
-4.421855	BUOL,	-0.30103
-4.421855	BUREAU	-0.30103
-4.421855	BURREN	-0.30103
-4.421855	BUURLAND	-0.30103
-4.023902	BUURT	-0.69897
-4.421855	BUURTBEWONERS	-0.30103
-4.245757	BUYS	-0.4771212
-4.421855	BVB.	-0.30103
-4.245757	BY	-0.30103
-4.120814	BYZANTIJNSE	-0.39794
-4.421855	BYZANTIUM	-0.30103
-4.421855	BèTAVERVAL),	-0.30103
-4.245757	C	-0.30103
-4.245757	C.	-0.30103
-4.421855	C.,	-0.30103
-4.421855	C.;	-0.30103
-4.421855	C14	-0.30103
-4.120814	C14-DATERING	-0.30103
-4.245757	C14-DATERINGEN	-0.30103
-4.421855	C14-DATERINGSMETHODE.	-0.30103
-4.421855	C14-METHODE	-0.30103
-4.421855	C14.	-0.30103
-4.421855	C14DATING.COM	-0.30103
-4.421855	C4-FIXATIE	-0.30103
-3.819779	CA.	-0.30103
-4.421855	CA2+,	-0.30103
-4.421855	CABRAL	-0.30103
-4.421855	CAESAR	-0.30103
-4.421855	CAESAREA.	-0.30103
-4.421855	CAIRISSA	-0.30103
-4.421855	CAIRNS	-0.30103
-4.120814	CAL.	-0.39794
-4.421855	CALCIET	-0.30103
-4.421855	CALCISOL	-0.30103
-4.421855	CALCIUM	-0.30103
-4.421855	CALCIUM,	-0.30103
-4.421855	CALCIUMCARBONAAT,	-0.30103
-4.245757	CALIBRATION	-0.30103
-4.421855	CALPAL	-0.30103
-4.421855	CAMBISOL	-0.30103
-4.120814	CAMBRIDGE	-0.30103
-4.421855	CAMBRIDGE,	-0.30103
-4.421855	CAMBRIDGE:	-0.30103
-4.421855	CAMBRISCHE	-0.30103
-4.421855	CAMEROON.	-0.30103
-4.421855	CAMPBELL	-0.30103
-4.245757	CANADA,	-0.30103
-4.421855	CANADESE	-0.30103
-4.421855	CANALETTO,	-0.30103
-4.421855	CANUP	-0.30103
-4.421855	CANYONS,	-0.30103
-4.421855	CAO,	-0.30103
-4.421855	CAPACITEIT	-0.30103
-4.421855	CAPILLAIRE	-0.30103
-4.421855	CAPS	-0.30103
-4.421855	CAPSIZING	-0.30103
-3.94472	CAPTURE	-0.4259688
-4.421855	CAPTURE,	-0.30103
-3.94472	CARBON	-0.5440681
-4.421855	CARBONAAT	-0.30103
-4.421855	CARBONAATNEERSLAG.	-0.30103
-4.421855	CARBONATEN	-0.30103
-4.421855	CARBONATEN.	-0.30103
-4.421855	CARCINOMA	-0.30103
-4.421855	CARCINOOM	-0.30103
-4.421855	CARL	-0.30103
-4.421855	CARTOGRAAF	-0.30103
-4.421855	CARTOGRAFEN	-0.30103
-4.421855	CARTOGRAFIE	-0.30103
-4.421855	CARTOGRAFIE,	-0.30103
-4.421855	CASSINI	-0.30103
-4.421855	CASSINIKAART	-0.30103
-4.245757	CASSIS	-0.4771213
-4.421855	CASTELLA	-0.30103
-4.421855	CASTILLO	-0.30103
-4.421855	CASTOR	-0.30103
-4.421855	CASTOR,	-0.30103
-4.421855	CATACLYSME	-0.30103
-4.421855	CATASTROFISCHE	-0.30103
-4.421855	CATASTROFISME	-0.30103
-4.421855	CATASTROFISME,	-0.30103
-4.421855	CATCHMENT	-0.30103
-4.421855	CATEGORISEREN	-0.30103
-4.421855	CATO,	-0.30103
-4.421855	CATO-2	-0.30103
-4.245757	CAUSSES	-0.30103
-4.421855	CAVENDISH	-0.30103
-3.518747	CCS	-0.39794
-4.421855	CCS-DEMONSTRATIEPROJECTEN	-0.30103
-4.421855	CCS-KETENS	-0.30103
-4.421855	CCS.	-0.30103
-4.421855	CCUS-PROJECTHTTPS://ROTTERDAMCCUS.NL/	-0.30103
-4.421855	CECIL	-0.30103
-4.245757	CELLEN	-0.30103
-4.421855	CELLEN.	-0.30103
-4.421855	CELSIUS	-0.30103
-4.421855	CEMENT	-0.30103
-4.421855	CEMENT-,	-0.30103
-4.421855	CENTER	-0.30103
-4.421855	CENTER.	-0.30103
-4.421855	CENTIMETERS	-0.30103
-4.245757	CENTRAAL	-0.30103
-4.421855	CENTRAAL-AZIë	-0.30103
-4.023902	CENTRALE	-0.30103
-4.245757	CENTRE	-0.30103
-3.877772	CENTRUM	-0.4771212
-4.421855	CENTURY,	-0.30103
-4.421855	CESAR,	-0.30103
-4.421855	CH4	-0.30103
-4.421855	CHALCOFIEL	-0.30103
-4.421855	CHAMBERS'	-0.30103
-4.421855	CHANG	-0.30103
-4.023902	CHANGE	-0.30103
-4.421855	CHANGE,	-0.30103
-4.421855	CHANGE.	-0.30103
-4.421855	CHANGSHA	-0.30103
-4.421855	CHAOTISCH	-0.30103
-4.421855	CHAOTISCHE	-0.30103
-4.245757	CHAPTER	-0.30103
-4.421855	CHARENTE;	-0.30103
-4.023902	CHARLES	-0.30103
-4.245757	CHEMICAL	-0.30103
-3.546776	CHEMIE	-0.6532125
-3.768626	CHEMISCH	-0.3679768
-3.260468	CHEMISCHE	-0.3679768
-4.421855	CHEMISCHE,	-0.30103
-3.877772	CHEMISTRY	-0.60206
-4.421855	CHENGDA	-0.30103
-4.421855	CHERNOZEM	-0.30103
-4.421855	CHERNOZEMS	-0.30103
-4.421855	CHERNOZEMS,	-0.30103
-4.245757	CHI	-0.30103
-4.421855	CHICAGO,	-0.30103
-4.421855	CHICAGO.	-0.30103
-3.681475	CHINA	-0.3521825
-4.421855	CHINA,	-0.30103
-4.421855	CHINA.HTTP://WWW.CHINAKNOWLEDGE.DE/LITERATURE/SCIENCE/SHUIJINGZHU.HTML	-0.30103
-4.245757	CHINESE	-0.30103
-4.245757	CHINEZEN	-0.30103
-4.421855	CHIU,	-0.30103
-4.421855	CHLOOR,	-0.30103
-4.421855	CHOCOLADE	-0.30103
-4.421855	CHOROLOGISCHE	-0.30103
-4.421855	CHR)	-0.30103
-4.421855	CHR.	-0.30103
-4.421855	CHRISTELIJKE	-0.30103
-4.421855	CHRISTEN-ZIE	-0.30103
-4.421855	CHRISTENEN	-0.30103
-4.421855	CHRISTIAAN	-0.30103
-4.421855	CHRISTOFFEL	-0.30103
-4.421855	CHRISTOPHER	-0.30103
-4.421855	CHRISTOPHORUS	-0.30103
-4.421855	CHROMOSOOM	-0.30103
-4.421855	CHRONOLOGIE	-0.30103
-4.421855	CHRONOLOGIE,	-0.30103
-4.245757	CHRONOSTRATIGRAFIE	-0.30103
-4.421855	CHRONOSTRATIGRAFIE.	-0.30103
-4.421855	CHRONOSTRATIGRAFISCHE	-0.30103
-4.421855	CHU	-0.30103
-4.421855	CIA	-0.30103
-4.421855	CILINDERPROJECTIE.HTTP://WWW.PROGONOS.COM/FURUTI/MAPPROJ/NORMAL/PROJCYL/PROJCYL.HTML#RECTANGULARHTTP://BOOKS.GOOGLE.BE/BOOKS?ID=B6XPCFJA1PIC&PG=PA129&LPG=PA129&DQ=SUHRAB+RECTANGULAR+MAP+GEOGRAPHY&SOURCE=BL&OTS=N54SIUB431&SIG=XWQWGEMY8VAOMZIM07LJA8X5_6S&HL=EN&SA=X&EI=Q54GUTAJOYBR2WXL44HWBA&REDIR_ESC=Y#V=ONEPAGE&Q=SUHRAB%20RECTANGULAR%20MAP%20GEOGRAPHY&F=FALSE	-0.30103
-4.421855	CILINDERS,	-0.30103
-4.245757	CIRCA	-0.4771212
-4.421855	CIRCLE	-0.30103
-3.94472	CIRCULATIE	-0.30103
-4.421855	CIRCULATIECELLEN:	-0.30103
-4.120814	CIRKEL	-0.30103
-4.421855	CIRKEL.ZIE	-0.30103
-4.421855	CIRKELVORM	-0.30103
-4.421855	CIRKELVORMIG	-0.30103
-4.421855	CIRKELVORMIG,	-0.30103
-4.421855	CIVIEL-TECHNISCHE	-0.30103
-4.120814	CIVIELE	-0.30103
-4.421855	CIVIELE_TECHNIEK	-0.30103
-4.245757	CLAIMDE	-0.30103
-4.421855	CLAIMEN	-0.30103
-4.120814	CLASSIFICATIE	-0.30103
-4.421855	CLASSIFICATIESYSTEEM	-0.30103
-4.421855	CLASSIFICATIESYSTEMEN,	-0.30103
-4.245757	CLASSIFICATION	-0.30103
-4.421855	CLASSIFICATION,	-0.30103
-4.421855	CLASSIFICEERDE	-0.30103
-4.421855	CLASSIFICEREN	-0.30103
-4.245757	CLAUDIUS	-0.4771213
-4.023902	CLIMATE	-0.3679768
-4.245757	CM	-0.30103
-4.421855	CM.	-0.30103
-4.421855	CO	-0.30103
-2.890356	CO2	-0.4206399
-4.023902	CO2,	-0.30103
-4.120814	CO2-AFVANG	-0.60206
-4.421855	CO2-AFVANG,	-0.30103
-4.421855	CO2-ARME	-0.30103
-4.421855	CO2-CONCENTRATIE	-0.30103
-4.421855	CO2-EMISSIES	-0.30103
-4.421855	CO2-INJECTIE	-0.30103
-4.421855	CO2-KANONNEN.	-0.30103
-4.421855	CO2-LEIDING	-0.30103
-4.421855	CO2-LEIDINGEN	-0.30103
-4.245757	CO2-OPSLAG	-0.30103
-4.421855	CO2-SEQUESTRATIELOMBORG:	-0.30103
-4.421855	CO2-UITSTOOT.	-0.30103
-3.94472	CO2.	-0.4259687
-4.421855	CO2.LANSINGERNIEUWS,	-0.30103
-4.421855	CO2:	-0.30103
-4.421855	COASTAL	-0.30103
-4.245757	COENEN	-0.4771213
-4.245757	COENEN.	-0.30103
-4.421855	COLLEGA'S	-0.30103
-4.421855	COLLISIE	-0.30103
-4.421855	COLOM	-0.30103
-4.245757	COLORADO	-0.30103
-4.245757	COLUMBUS	-0.30103
-4.421855	COLUMBUS'	-0.30103
-4.421855	COMBAT	-0.30103
-4.120814	COMBINATIE	-0.39794
-4.421855	COMBINEERT.	-0.30103
-4.421855	COMBINEREN	-0.30103
-4.245757	COMITéS	-0.30103
-4.245757	COMITéS.	-0.30103
-4.421855	COMMENTAAR).HTTP://WWW.SCHAAB-HANKE.DE/PUBLIKATIONEN/SCHAAB-HANKE_HSS_3_UNTER_DEM_HIMMEL.PDF	-0.30103
-4.421855	COMMERCIEEL/ZELFSTANDIG	-0.30103
-4.245757	COMMERCIëLE	-0.30103
-4.245757	COMMISSIE	-0.30103
-4.245757	COMMISSIES	-0.30103
-4.421855	COMMISSIES:	-0.30103
-4.421855	COMMONWEALTH	-0.30103
-4.421855	COMMUNICATIE	-0.30103
-4.245757	COMPACTERE	-0.30103
-4.421855	COMPANY	-0.30103
-4.421855	COMPENDIUM	-0.30103
-4.421855	COMPENDIUMVOORDELEEFOMGEVING.NL	-0.30103
-4.421855	COMPENSEREND	-0.30103
-4.421855	COMPLEET	-0.30103
-4.421855	COMPLEET.	-0.30103
-4.245757	COMPLETE	-0.30103
-4.245757	COMPLEX	-0.30103
-4.023902	COMPLEXE	-0.30103
-4.421855	COMPLEXITEIT.	-0.30103
-4.421855	COMPONENTEN	-0.30103
-4.421855	COMPONENTEN,	-0.30103
-4.421855	COMPRESSIE	-0.30103
-4.421855	COMPUTER.	-0.30103
-4.421855	COMPUTERCENTRUM	-0.30103
-4.120814	COMPUTERS	-0.30103
-4.421855	COMPUTERS.	-0.30103
-4.421855	COMPUTERSIMULATIE	-0.30103
-4.421855	COMPUTERSIMULATIE,	-0.30103
-4.421855	COMPUTERSIMULATIES	-0.30103
-4.421855	COMPUTERSYSTEMEN	-0.30103
-3.608924	CONCENTRATIE	-0.3424227
-4.245757	CONCENTRATIE.	-0.30103
-3.94472	CONCENTRATIES	-0.30103
-4.421855	CONCENTRATIEVERSCHIL.	-0.30103
-4.421855	CONCENTREERT	-0.30103
-4.421855	CONCENTREREN.	-0.30103
-4.421855	CONCENTRISCH	-0.30103
-4.421855	CONCENTRISCHE	-0.30103
-4.023902	CONCEPT	-0.3679768
-4.421855	CONCEPTEN	-0.30103
-4.421855	CONCEPTS:	-0.30103
-4.245757	CONCLUSIES	-0.30103
-4.421855	CONCRETIE	-0.30103
-4.421855	CONCURREREN	-0.30103
-4.421855	CONDAMINE	-0.30103
-4.421855	CONDENSATIE	-0.30103
-4.421855	CONDENSEERT.	-0.30103
-4.245757	CONDENSEREN	-0.4771212
-4.421855	CONDUCTIE	-0.30103
-4.421855	CONDUCTIEVE	-0.30103
-4.421855	CONFLICT	-0.30103
-4.421855	CONFLICTEN	-0.30103
-4.421855	CONFORM	-0.30103
-4.421855	CONFRONT	-0.30103
-4.421855	CONGO-BRAZZAVILLE	-0.30103
-4.421855	CONGRES	-0.30103
-4.421855	CONGRESSEN	-0.30103
-4.421855	CONINCK,	-0.30103
-4.421855	CONSENSUS	-0.30103
-4.421855	CONSERVATION	-0.30103
-4.421855	CONSOLIDATIE.	-0.30103
-4.120814	CONSTANT	-0.39794
-4.421855	CONSTANT.	-0.30103
-3.94472	CONSTANTE	-0.30103
-4.421855	CONSTANTIJN	-0.30103
-4.023902	CONSTANTINOPEL	-0.30103
-4.421855	CONSTATEERDEN	-0.30103
-4.421855	CONSTRUCTIE.	-0.30103
-4.421855	CONSTRUCTIES	-0.30103
-4.421855	CONSUMPTIE	-0.30103
-4.421855	CONSUMPTIE.	-0.30103
-4.245757	CONTEXT	-0.4771212
-4.421855	CONTEXTEN	-0.30103
-3.722868	CONTINENT	-0.327359
-4.120814	CONTINENTAAL	-0.30103
-4.120814	CONTINENTAL	-0.60206
-3.877772	CONTINENTALE	-0.3424227
-3.518747	CONTINENTEN	-0.3521825
-4.421855	CONTINENTEN,	-0.30103
-4.421855	CONTINENTEN:	-0.30103
-4.421855	CONTINENTVERSCHUIVING	-0.30103
-4.245757	CONTINUE	-0.30103
-4.421855	CONTOURLIJNEN	-0.30103
-4.421855	CONTRACTEN.	-0.30103
-4.421855	CONTROLE	-0.30103
-4.421855	CONVECTEERT	-0.30103
-4.245757	CONVECTERENDE	-0.30103
-3.722868	CONVECTIE	-0.3590219
-4.421855	CONVECTIE,	-0.30103
-4.421855	CONVECTIE:	-0.30103
-4.023902	CONVECTIESTROMING	-0.4771213
-4.245757	CONVECTIESTROMINGEN	-0.30103
-4.421855	CONVECTIESTROOM,	-0.30103
-4.421855	CONVENTIONELE	-0.30103
-4.421855	CONVENTIONS,	-0.30103
-4.245757	CONVERGENTE	-0.30103
-4.421855	COOK	-0.30103
-4.421855	COOPERATIVE	-0.30103
-4.245757	COPERNICUS	-0.30103
-4.421855	COPERNICUS.	-0.30103
-4.421855	COQUINA	-0.30103
-4.421855	CORALS	-0.30103
-4.421855	CORE,	-0.30103
-4.421855	CORIOLIS	-0.30103
-4.421855	CORIOLISEFFECT	-0.30103
-4.421855	CORIOLISEFFECT,	-0.30103
-4.421855	CORONA	-0.30103
-4.421855	CORRASIE	-0.30103
-4.421855	CORRECTE	-0.30103
-4.245757	CORRELEREN.	-0.30103
-4.421855	CORRESPONDEERT.	-0.30103
-4.421855	CORRESPONDEREND	-0.30103
-4.421855	CORRIGEERDEN	-0.30103
-4.421855	CORTéS	-0.30103
-4.421855	COSMAS	-0.30103
-4.245757	COSMOGRAPHIA,	-0.30103
-4.421855	COSTA	-0.30103
-4.421855	COöRDINAAT	-0.30103
-4.421855	COöRDINATENSYSTEEM	-0.30103
-4.421855	CRC).	-0.30103
-4.421855	CREATIE	-0.30103
-4.421855	CREATING	-0.30103
-4.421855	CREATIONISTEN	-0.30103
-4.421855	CREATIONISTISCHE	-0.30103
-4.421855	CRITERIA	-0.30103
-4.421855	CRITICAL	-0.30103
-4.421855	CROTIVINA	-0.30103
-4.421855	CRUITHNE,	-0.30103
-4.421855	CRYOSFEER	-0.30103
-4.421855	CRYOSOL	-0.30103
-4.421855	CRYOTURBATIE	-0.30103
-4.421855	CRYOVULKANISME	-0.30103
-4.421855	CU	-0.30103
-4.421855	CUCKMERE.	-0.30103
-4.421855	CUESTA	-0.30103
-4.421855	CUEVAS	-0.30103
-4.421855	CULTURELE	-0.30103
-4.120814	CULTUREN	-0.30103
-4.421855	CULTUREN,	-0.30103
-4.421855	CULTUUR	-0.30103
-4.421855	CULTUURGROND	-0.30103
-4.421855	CULTUURGROND,	-0.30103
-4.421855	CULTUURTECHNIEK	-0.30103
-4.421855	CURSUS	-0.30103
-4.245757	CURVE	-0.30103
-4.421855	CUVIER	-0.30103
-4.421855	CYCLES".	-0.30103
-4.120814	CYCLI	-0.30103
-4.421855	CYCLI.	-0.30103
-4.421855	CYCLISCH	-0.30103
-3.94472	CYCLISCHE	-0.3521825
-4.421855	CYCLONEN,	-0.30103
-4.421855	CYCLOPAEDIA	-0.30103
-4.421855	CYCLOSTRATIGRAFIE,	-0.30103
-4.023902	CYCLUS	-0.30103
-4.421855	CYCLUS,	-0.30103
-4.421855	CYPRUS	-0.30103
-4.421855	CéSAR-FRANçOIS	-0.30103
-4.245757	D	-0.30103
-4.421855	D'ÉPRAVE	-0.30103
-4.245757	D.	-0.30103
-4.245757	D.G.N.,	-0.30103
-4.120814	DA	-0.39794
-4.421855	DAADWERKELIJK	-0.30103
-4.421855	DAADWERKELIJKE	-0.30103
-4.421855	DAALDE	-0.30103
-4.245757	DAALT	-0.4771213
-4.421855	DAALT,	-0.30103
-4.421855	DAALT.	-0.30103
-3.546776	DAAR	-0.30103
-4.421855	DAARAAN	-0.30103
-3.94472	DAARBIJ	-0.30103
-4.421855	DAARBUITEN	-0.30103
-4.421855	DAARBUITEN).	-0.30103
-3.546776	DAARDOOR	-0.30103
-4.421855	DAARENTEGEN	-0.30103
-4.023902	DAARIN	-0.30103
-3.643686	DAARMEE	-0.4101744
-3.94472	DAARNA	-0.30103
-4.421855	DAARNA.DE	-0.30103
-3.518747	DAARNAAST	-0.3332147
-3.467594	DAAROM	-0.3290587
-4.421855	DAAROMHEEN	-0.30103
-4.245757	DAARONDER	-0.30103
-4.421855	DAAROP	-0.30103
-4.245757	DAAROVER	-0.30103
-3.94472	DAARTOE	-0.30103
-4.421855	DAARTUSSEN	-0.30103
-3.877772	DAARVAN	-0.3424227
-4.421855	DAARVAN,	-0.30103
-4.421855	DAARVAN.	-0.30103
-4.421855	DAARVOOR	-0.30103
-4.421855	DACHT	-0.30103
-4.245757	DACHTEN	-0.4771212
-3.768626	DAG	-0.3679768
-4.421855	DAG)	-0.30103
-4.421855	DAGELIJKS	-0.30103
-4.245757	DAGELIJKSE	-0.30103
-4.120814	DAGEN	-0.30103
-4.023902	DAGEN.	-0.30103
-4.421855	DAGUAN	-0.30103
-4.421855	DAGZOMEN	-0.30103
-4.421855	DAILY	-0.30103
-4.421855	DAL	-0.30103
-4.421855	DAL,	-0.30103
-4.421855	DAL;	-0.30103
-4.421855	DALEN,	-0.30103
-4.421855	DALENDE	-0.30103
-4.421855	DALES	-0.30103
-4.245757	DALRYMPLE	-0.30103
-4.421855	DAMMEN	-0.30103
-4.421855	DAMP	-0.30103
-4.120814	DAMPEN	-0.30103
-4.421855	DAMPKRING	-0.30103
-4.421855	DAMPKRING)	-0.30103
-4.421855	DAMPKRING.	-0.30103
-4.421855	DAMPVORMIGE	-0.30103
-2.643683	DAN	-0.4127406
-4.421855	DANKEN	-0.30103
-3.768626	DANKZIJ	-0.4149733
-4.421855	DAOYUAN	-0.30103
-4.421855	DARWIN	-0.30103
-4.421855	DARWINS	-0.30103
-2.363029	DAT	-0.5481846
-4.421855	DAT,	-0.30103
-3.877772	DATA	-0.30103
-4.421855	DATABANK	-0.30103
-4.421855	DATAKABEL	-0.30103
-4.421855	DATEERT	-0.30103
-3.94472	DATEREN	-0.3521825
-4.421855	DATEREN.	-0.30103
-3.380443	DATERING	-0.4637573
-4.245757	DATERING,	-0.30103
-4.120814	DATERING.	-0.30103
-4.421855	DATERING:	-0.30103
-4.421855	DATERING;	-0.30103
-4.023902	DATERINGEN	-0.3679768
-4.245757	DATERINGSMETHODE	-0.30103
-4.421855	DATERINGSMETHODEN	-0.30103
-4.421855	DATERINGSMETHODEN.	-0.30103
-4.421855	DATERINGSMETHODES	-0.30103
-4.421855	DATES	-0.30103
-4.421855	DATZELFDE	-0.30103
-4.421855	DAVID	-0.30103
-4.421855	DAğ.HTTPS://WWW.REPOSITORY.CAM.AC.UK/HANDLE/1810/195777	-0.30103
-4.421855	DC.	-0.30103
-1.223177	DE	-0.4877315
-4.421855	DE,	-0.30103
-3.518747	DEBIET	-0.39794
-4.421855	DEBIET,	-0.30103
-4.421855	DEBIETMETEN	-0.30103
-4.421855	DEBIETMETER	-0.30103
-4.421855	DECAAN	-0.30103
-4.421855	DECADAL	-0.30103
-4.421855	DECEMBER	-0.30103
-4.421855	DECENNIA	-0.30103
-4.421855	DECIMETERS	-0.30103
-4.421855	DECIMETERS,	-0.30103
-4.421855	DEED	-0.30103
-4.421855	DEED.HTTP://GEOGRAPHY.ABOUT.COM/OD/HISTORYOFGEOGRAPHY/A/ERATOSTHENES.HTM	-0.30103
-3.120805	DEEL	-0.6575773
-4.421855	DEELDE	-0.30103
-4.421855	DEELGEBIED	-0.30103
-4.421855	DEELNEEMT	-0.30103
-4.120814	DEELS	-0.30103
-4.421855	DEELS,	-0.30103
-3.877772	DEELTJES	-0.3424227
-4.421855	DEELTJES,	-0.30103
-4.421855	DEELVAKGEBIED	-0.30103
-4.421855	DEENSE	-0.30103
-4.421855	DEFECTE	-0.30103
-4.245757	DEFINITIE	-0.30103
-4.421855	DEFINIëREN	-0.30103
-4.421855	DEFLATIEKOMMEN	-0.30103
-4.421855	DEFORMATIE	-0.30103
-4.421855	DEFORMATIES	-0.30103
-4.245757	DEFORMEERT	-0.30103
-4.421855	DEK	-0.30103
-4.421855	DEKBLAD	-0.30103
-4.421855	DEKEN	-0.30103
-4.421855	DEKKEND	-0.30103
-4.421855	DEL	-0.30103
-4.421855	DELAMBRE	-0.30103
-3.546776	DELEN	-0.4393327
-4.421855	DELEN;	-0.30103
-4.421855	DELFGAUW.OCAP	-0.30103
-4.120814	DELFSTOFFEN	-0.39794
-4.245757	DELFT	-0.30103
-4.421855	DELLE	-0.30103
-4.421855	DELTA	-0.30103
-4.023902	DELTA'S	-0.3679768
-4.245757	DELTA'S.	-0.30103
-4.421855	DELTA,	-0.30103
-4.421855	DELTAPROGRAMMA	-0.30103
-4.421855	DELTAïSCHE	-0.30103
-4.421855	DEMOGRAFIE.	-0.30103
-4.421855	DEMONSTRATIE	-0.30103
-4.245757	DEMONSTRATIEPROJECT	-0.30103
-4.421855	DEMONSTRATIEPROJECT.	-0.30103
-4.023902	DEN	-0.30103
-4.421855	DENDROCHRONOLOGIA	-0.30103
-3.94472	DENDROCHRONOLOGIE	-0.30103
-4.421855	DENDROCHRONOLOGIE,	-0.30103
-4.421855	DENDROCHRONOLOGIE.	-0.30103
-4.245757	DENDROCHRONOLOGISCHE	-0.30103
-4.421855	DENDROCHRONOLOY	-0.30103
-4.421855	DENEB	-0.30103
-4.421855	DENK	-0.30103
-4.421855	DENKBEELDIGE	-0.30103
-4.421855	DENKEN	-0.30103
-4.421855	DENUDATIE	-0.30103
-4.421855	DEPARTMENT	-0.30103
-4.245757	DEPOSITIE	-0.30103
-4.245757	DEPRESSIE	-0.30103
-3.576739	DER	-0.3388186
-4.023902	DERDE	-0.30103
-3.819779	DERGELIJKE	-0.3357921
-4.421855	DERTIEN	-0.30103
-4.120814	DES	-0.30103
-4.421855	DESBETREFFENDE	-0.30103
-4.421855	DESCRIPTIO	-0.30103
-4.421855	DESKUNDIGEN,	-0.30103
-4.421855	DESONDANKS	-0.30103
-4.245757	DESTIJDS	-0.30103
-4.421855	DESTRUCTIEVE	-0.30103
-4.245757	DETAIL	-0.30103
-4.421855	DETAIL.	-0.30103
-4.421855	DETAILNIVEAU	-0.30103
-4.421855	DETAILS	-0.30103
-4.421855	DETECTEREN.	-0.30103
-4.421855	DETRITUS	-0.30103
-4.421855	DEVA	-0.30103
-4.421855	DEVOON	-0.30103
-2.625954	DEZE	-0.3551269
-4.421855	DEZE.	-0.30103
-3.608924	DEZELFDE	-0.30103
-4.245757	DIAGENESE	-0.30103
-4.421855	DIAKLAZEN,	-0.30103
-4.421855	DIAMANTEN	-0.30103
-3.768626	DIAMETER	-0.4771213
-4.421855	DIAMETER,	-0.30103
-4.421855	DIAS	-0.30103
-3.94472	DICHT	-0.3521825
-4.421855	DICHTBEVOLKTE	-0.30103
-4.421855	DICHTBIJ	-0.30103
-4.421855	DICHTE	-0.30103
-4.421855	DICHTE,	-0.30103
-4.120814	DICHTER	-0.30103
-4.245757	DICHTERBIJ	-0.30103
-4.421855	DICHTERE,	-0.30103
-3.94472	DICHTHEID	-0.4259687
-4.245757	DICHTHEID,	-0.30103
-4.421855	DICHTHEID.	-0.30103
-4.421855	DICHTHEIDSVERDELINGEN,	-0.30103
-4.421855	DICHTHEIDSVERSCHIL	-0.30103
-4.120814	DICHTHEIDSVERSCHILLEN	-0.30103
-4.421855	DICHTST	-0.30103
-4.421855	DICK	-0.30103
-2.245743	DIE	-0.472333
-4.421855	DIENDEN	-0.30103
-4.421855	DIENS	-0.30103
-3.94472	DIENST	-0.3521826
-4.245757	DIENST,	-0.30103
-4.421855	DIENSTE	-0.30103
-4.421855	DIENSTEN	-0.30103
-4.421855	DIENT	-0.30103
-4.421855	DIENTENGEVOLGE	-0.30103
-3.768626	DIEP	-0.3679768
-3.722868	DIEPE	-0.3273589
-4.120814	DIEPER	-0.30103
-4.421855	DIEPER.	-0.30103
-4.120814	DIEPERE	-0.30103
-4.120814	DIEPGANG	-0.30103
-4.421855	DIEPSTE	-0.30103
-3.492418	DIEPTE	-0.4436975
-4.421855	DIEPTE)	-0.30103
-3.94472	DIEPTE,	-0.30103
-4.245757	DIEPTE.	-0.30103
-4.421855	DIEPTEGESTEENTE	-0.30103
-4.245757	DIEPTELIJNEN	-0.4771212
-4.245757	DIEPTEN	-0.30103
-4.023902	DIEPTES	-0.3679768
-4.421855	DIEPZEE)	-0.30103
-4.421855	DIEPZEEGEDEELTE	-0.30103
-4.421855	DIEPZEEKERN	-0.30103
-4.421855	DIEPZEESEDIMENTEN,	-0.30103
-4.421855	DIEPZEESONDE	-0.30103
-3.722868	DIEREN	-0.39794
-4.245757	DIEREN.	-0.4771213
-4.421855	DIERLIJK	-0.30103
-4.421855	DIERLIJKE	-0.30103
-4.120814	DIFFERENTIATIE	-0.30103
-4.120814	DIFFUSIE	-0.30103
-4.245757	DIGITAAL	-0.30103
-4.421855	DIGITAL	-0.30103
-4.245757	DIGITALE	-0.30103
-4.421855	DIJK	-0.30103
-3.94472	DIJKEN	-0.30103
-4.421855	DIJKEN.	-0.30103
-4.023902	DIK	-0.3679768
-4.245757	DIKKE	-0.30103
-4.421855	DIKKER	-0.30103
-3.819779	DIKTE	-0.6532125
-4.120814	DIKWIJLS	-0.30103
-4.245757	DINOSAURIëRS	-0.30103
-4.421855	DIOECESIS	-0.30103
-4.245757	DIOXIDE	-0.4771213
-4.421855	DIPLOMATIEKE	-0.30103
-4.421855	DIPOOLVELD,	-0.30103
-3.877772	DIRECT	-0.30103
-4.245757	DIRECTE	-0.30103
-4.245757	DIRECTEUR	-0.30103
-4.421855	DIRECTEUREN	-0.30103
-4.120814	DISCIPLINE	-0.30103
-4.421855	DISCIPLINES	-0.30103
-4.421855	DISCIPLINES.	-0.30103
-4.421855	DISCONTINUïTEIT	-0.30103
-4.421855	DISCONTINUïTEITEN	-0.30103
-4.421855	DISCOUERIES	-0.30103
-4.421855	DISCOVERIE	-0.30103
-4.245757	DISCUSSIE	-0.4771213
-3.681475	DISTAAL	-0.3853509
-4.421855	DISTAAL,	-0.30103
-4.245757	DISTALE	-0.4771212
-4.245757	DISTALER	-0.4771213
-4.421855	DISTIKSTOFMONOXIDE,	-0.30103
-4.421855	DISTRIBUEERT	-0.30103
-4.421855	DISTRIBUTIE	-0.30103
-2.538173	DIT	-0.423602
-4.421855	DITMAAL	-0.30103
-4.421855	DIVEHI	-0.30103
-4.245757	DIVERGENTE	-0.30103
-4.421855	DIVERS	-0.30103
-3.819779	DIVERSE	-0.30103
-4.421855	DIVERSER	-0.30103
-4.421855	DIWATERSTOFSULFIDE,	-0.30103
-4.421855	DIXON	-0.30103
-4.421855	DOCHTER	-0.30103
-4.421855	DOCTOR	-0.30103
-4.421855	DOCTORAAT	-0.30103
-4.421855	DOCTRINE	-0.30103
-4.421855	DOCUMENTEN)	-0.30103
-4.120814	DODE	-0.30103
-4.421855	DODELIJK.	-0.30103
-3.546776	DOEL	-0.3802113
-4.421855	DOEL.	-0.30103
-3.877772	DOEN	-0.30103
-4.421855	DOEN.	-0.30103
-4.421855	DOENBAAR	-0.30103
-4.023902	DOET	-0.30103
-4.421855	DOI:10.1016/S0009-2541(97)00142-3.	-0.30103
-4.421855	DOI:10.1029/2006GL028492..	-0.30103
-4.421855	DOI:10.1080/01490419.2010.491031.CUSLRG	-0.30103
-4.421855	DOLE	-0.30103
-4.421855	DOLINE	-0.30103
-4.421855	DOLINES	-0.30103
-4.421855	DOLINES,	-0.30103
-4.421855	DOLOMIET	-0.30103
-4.421855	DOLOMIET:	-0.30103
-4.421855	DOLOMIETEN	-0.30103
-4.421855	DOLOMIETROTSEN	-0.30103
-4.421855	DOMESTICATIE	-0.30103
-4.421855	DOMINANTE	-0.30103
-4.421855	DOMINEERDEN	-0.30103
-4.421855	DON	-0.30103
-4.421855	DONAHUE	-0.30103
-4.245757	DONK	-0.4771213
-4.245757	DONKER	-0.30103
-4.421855	DONKERBRUINE	-0.30103
-4.421855	DONKERDERGEKLEURD	-0.30103
-4.120814	DONKERE	-0.39794
-4.421855	DONKERE,	-0.30103
-4.421855	DONKERGEKLEURD	-0.30103
-4.245757	DOOD	-0.30103
-4.421855	DOOLITTLE	-0.30103
-2.237143	DOOR	-0.4898237
-4.421855	DOOR.	-0.30103
-4.421855	DOOR:	-0.30103
-4.421855	DOORBRAAK	-0.30103
-4.421855	DOORBREEKT,	-0.30103
-3.380443	DOORDAT	-0.4637572
-3.819779	DOORGAANS	-0.3357921
-4.421855	DOORGAAT	-0.30103
-4.421855	DOORGEDRONGEN	-0.30103
-4.421855	DOORGEMAAKT.	-0.30103
-4.421855	DOORGEZAAGD.	-0.30103
-4.421855	DOORLAAT.	-0.30103
-4.245757	DOORSNEDE	-0.30103
-4.421855	DOORSNEDE.	-0.30103
-4.421855	DOORSNIJDEN	-0.30103
-4.245757	DOORSTROMEND	-0.30103
-4.421855	DOORVAART	-0.30103
-4.421855	DOORWERKT.	-0.30103
-4.421855	DOOS	-0.30103
-4.421855	DORP	-0.30103
-4.421855	DOUBS	-0.30103
-4.245757	DOUBS;	-0.4771213
-4.023902	DR.	-0.30103
-4.421855	DRAA	-0.30103
-4.421855	DRAAGFUNCTIE	-0.30103
-4.245757	DRAAGT	-0.30103
-4.421855	DRAAGVLAK	-0.30103
-4.421855	DRAAIDE	-0.30103
-4.421855	DRAAIEN	-0.30103
-4.421855	DRAAIEN.	-0.30103
-4.421855	DRAAIING	-0.30103
-4.245757	DRAAIT	-0.30103
-4.120814	DRAAIT,	-0.30103
-4.421855	DRAAIT.	-0.30103
-4.421855	DRAGEN	-0.30103
-4.421855	DRAINAGE	-0.30103
-4.421855	DRAINERINGSKLASSE,	-0.30103
-4.421855	DRAKE	-0.30103
-4.421855	DREDGING	-0.30103
-4.421855	DREEF.	-0.30103
-4.421855	DREIGT	-0.30103
-4.421855	DREMPEL	-0.30103
-4.421855	DRENTHE,	-0.30103
-4.421855	DRENTHE-STADIUM	-0.30103
-3.576739	DRIE	-0.3187588
-4.421855	DRIEDIMENSIONAAL	-0.30103
-4.421855	DRIEHOEKSMETING.	-0.30103
-4.421855	DRIEHOEKSMETING.HTTP://WWW.BRITANNICA.COM/EBCHECKED/TOPIC/98206/CESAR-FRANCOIS-CASSINI-DE-THURY	-0.30103
-4.421855	DRIEKWART,	-0.30103
-4.421855	DRIJFIJS,	-0.30103
-4.120814	DRIJFIJSSTATION	-0.30103
-4.421855	DRIJFIJSSTATIONS	-0.30103
-4.421855	DRIJFT	-0.30103
-4.421855	DRIJFZAND	-0.30103
-4.120814	DRILLING	-0.60206
-4.421855	DRILLING;	-0.30103
-4.421855	DRINGT	-0.30103
-4.421855	DRINKBAAR	-0.30103
-4.120814	DRINKWATER	-0.30103
-4.421855	DRINKWATER,	-0.30103
-3.94472	DROGE	-0.30103
-4.421855	DROGERE,	-0.30103
-4.421855	DROMEDARISSEN	-0.30103
-4.421855	DROOG	-0.30103
-4.421855	DROOG).	-0.30103
-4.421855	DROOG,	-0.30103
-4.421855	DROOGSTAAT	-0.30103
-4.421855	DROOGTE.	-0.30103
-4.245757	DROOGVALLINGEN	-0.30103
-3.380443	DRUK	-0.3493347
-4.421855	DRUK-	-0.30103
-4.245757	DRUK.	-0.30103
-4.245757	DRUKKE	-0.30103
-4.245757	DRUKKEN	-0.4771212
-4.421855	DRUKVERSCHIL	-0.30103
-4.421855	DRUPPELTJES	-0.30103
-4.421855	DRUPPELVORMIGE	-0.30103
-4.421855	DRYASPERIODE.	-0.30103
-4.421855	DSM)	-0.30103
-4.421855	DU	-0.30103
-4.421855	DUCHAUFOUR,	-0.30103
-4.421855	DUFF	-0.30103
-4.023902	DUIDELIJK	-0.30103
-4.421855	DUIDELIJK.	-0.30103
-4.023902	DUIDELIJKE	-0.30103
-4.421855	DUIDELIJKHEID,	-0.30103
-4.421855	DUIDEN	-0.30103
-4.421855	DUIKBOTEN	-0.30103
-4.245757	DUIKER	-0.30103
-4.023902	DUIN	-0.30103
-4.245757	DUINEN	-0.30103
-4.421855	DUINEN,	-0.30103
-4.421855	DUINGRONDEN	-0.30103
-4.421855	DUINKERKE	-0.30103
-4.421855	DUINVORM	-0.30103
-4.245757	DUINVORMING	-0.30103
-3.877772	DUITS	-0.39794
-4.421855	DUITS-ZWITSERSE	-0.30103
-4.245757	DUITS/ZWITSERS	-0.4771213
-4.421855	DUITSE	-0.30103
-4.120814	DUITSLAND	-0.30103
-4.421855	DUITSLAND,	-0.30103
-4.421855	DUITSLAND.	-0.30103
-4.421855	DUIZELIGHEID,	-0.30103
-3.94472	DUIZEND	-0.544068
-3.94472	DUIZENDEN	-0.3521825
-4.023902	DUNNE	-0.30103
-4.245757	DUNNER	-0.30103
-4.421855	DUNNERE	-0.30103
-4.421855	DURING	-0.30103
-4.421855	DURISOL	-0.30103
-3.400647	DUS	-0.4045706
-4.421855	DUS),	-0.30103
-4.421855	DUTCH	-0.30103
-4.120814	DUURDE	-0.30103
-4.023902	DUURT	-0.30103
-4.421855	DUURT.:	-0.30103
-3.877772	DUURZAME	-0.3424227
-4.421855	DUURZAMER	-0.30103
-4.421855	DUYFKEN	-0.30103
-4.023902	DWARS	-0.4771213
-4.421855	DWARSDOORSNEDE-GEMIDDELDE	-0.30103
-4.421855	DWARSDOORSNEDES	-0.30103
-4.421855	DWERGGROEI.	-0.30103
-4.421855	DYNAMICA	-0.30103
-4.421855	DYNAMIEK	-0.30103
-4.421855	DYNAMO	-0.30103
-4.421855	DYNAMOTHEORIE	-0.30103
-3.768626	DYNASTIE	-0.30103
-4.421855	DYNASTIE.HTTP://WWW.CAMBRIAPRESS.COM/CAMBRIAPRESS.CFM?TEMPLATE=4&BID=261	-0.30103
-4.421855	DYNASTIEëN	-0.30103
-4.421855	DóóRDRINGEN	-0.30103
-4.421855	D’ETUDES	-0.30103
-4.120814	E	-0.30103
-4.421855	E&P	-0.30103
-4.421855	E-HORIZONT	-0.30103
-4.245757	E.	-0.4771212
-4.421855	E.,	-0.30103
-4.421855	E.A.	-0.30103
-4.421855	E.C.	-0.30103
-4.421855	E.O.	-0.30103
-4.421855	E.V.	-0.30103
-4.421855	E.W.	-0.30103
-4.245757	EARTH	-0.30103
-4.421855	EARTH?,	-0.30103
-4.421855	EARTH’S	-0.30103
-4.421855	EB	-0.30103
-4.421855	EBN	-0.30103
-4.421855	ECHO'S	-0.30103
-4.245757	ECHOLOOD	-0.30103
-4.421855	ECHOLOOD.	-0.30103
-4.421855	ECHOTIJD,	-0.30103
-4.421855	ECHT	-0.30103
-4.245757	ECHTE	-0.30103
-3.154664	ECHTER	-0.39794
-4.421855	ECLIPSE	-0.30103
-4.421855	ECLIPTICA	-0.30103
-4.421855	ECLIPTICA.	-0.30103
-4.421855	ECOFACTEN	-0.30103
-4.120814	ECOLOGIE	-0.39794
-4.421855	ECOLOGIE,	-0.30103
-4.245757	ECOLOGIE.	-0.4771213
-4.421855	ECOLOGISCH	-0.30103
-4.421855	ECOLOGISCHE	-0.30103
-4.421855	ECONOMIE	-0.30103
-4.421855	ECONOMIE,	-0.30103
-4.421855	ECONOMIE.	-0.30103
-4.421855	ECONOMISCH	-0.30103
-4.245757	ECONOMISCHE	-0.30103
-4.421855	ECONOOM	-0.30103
-4.023902	ECOSYSTEEM	-0.30103
-4.421855	ECOSYSTEEM.	-0.30103
-4.245757	ECOSYSTEEMDIENSTEN	-0.4771213
-4.023902	ECOSYSTEMEN	-0.3679768
-4.245757	ECOSYSTEMEN.	-0.30103
-4.421855	ECOSYSTEMS	-0.30103
-4.421855	ED.	-0.30103
-3.94472	ED.).	-0.30103
-4.421855	ED.,	-0.30103
-4.421855	EDESSA	-0.30103
-4.421855	EDINBURGH.	-0.30103
-4.421855	EDIS	-0.30103
-1.735645	EEN	-0.3906961
-4.421855	EENCELLIGEN,	-0.30103
-4.421855	EENDEN	-0.30103
-4.421855	EENDENSTERFTE	-0.30103
-4.421855	EENDUIDIG	-0.30103
-4.245757	EENDUIDIGE	-0.30103
-4.120814	EENHEDEN	-0.30103
-4.421855	EENHEDEN,	-0.30103
-4.421855	EENHEID	-0.30103
-4.421855	EENHEID,	-0.30103
-4.421855	EENMAAL	-0.30103
-4.421855	EENMAAL,	-0.30103
-4.245757	EENS	-0.30103
-4.421855	EENVOUDIG	-0.30103
-4.421855	EENVOUDIGE	-0.30103
-4.421855	EENVOUDIGSTE	-0.30103
-4.421855	EENZELFDE	-0.30103
-4.023902	EERDER	-0.30103
-4.245757	EERDGRONDEN	-0.30103
-3.546776	EERST	-0.3174204
-3.110081	EERSTE	-0.318289
-4.421855	EERSTEN	-0.30103
-4.421855	EERTIJDS	-0.30103
-3.178797	EEUW	-0.3832167
-4.120814	EEUW,	-0.30103
-4.120814	EEUW.	-0.30103
-4.421855	EEUW.MULLER,	-0.30103
-4.421855	EEUWE	-0.30103
-4.023902	EEUWEN	-0.3679768
-4.421855	EEUWENLANG	-0.30103
-3.608924	EFFECT	-0.3424227
-4.120814	EFFECT.	-0.30103
-4.023902	EFFECTEN	-0.4771212
-4.421855	EGMOND.	-0.30103
-4.245757	EGYPTE	-0.30103
-4.421855	EGYPTE,	-0.30103
-4.421855	EGYPTENAREN	-0.30103
-4.245757	EGYPTISCHE	-0.30103
-3.467594	EIGEN	-0.3452337
-4.421855	EIGENDOMSGRENZEN	-0.30103
-4.421855	EIGENDOMSRECHT	-0.30103
-4.421855	EIGENLIJK	-0.30103
-4.421855	EIGENSCHAP	-0.30103
-3.681475	EIGENSCHAPPEN	-0.3853509
-4.421855	EIGENSCHAPPEN,	-0.30103
-4.245757	EIGENSCHAPPEN.	-0.30103
-4.421855	EIGENTIJDSE	-0.30103
-4.245757	EIGENTRILLINGEN	-0.4771213
-4.120814	EILAND	-0.30103
-4.421855	EILANDBOOG	-0.30103
-4.120814	EILANDEN	-0.30103
-4.421855	EILANDEN.	-0.30103
-4.245757	EIND	-0.30103
-3.94472	EINDE	-0.7781512
-4.421855	EINDELIJK	-0.30103
-4.421855	EINDELIJK,	-0.30103
-4.421855	EINDIGDE	-0.30103
-4.421855	EINDIGT	-0.30103
-4.421855	EISE	-0.30103
-4.421855	EISEN	-0.30103
-4.421855	EISINGA	-0.30103
-4.421855	EIWITTEN	-0.30103
-4.421855	EKSPEDITSIA)	-0.30103
-4.245757	EL	-0.30103
-4.245757	ELDERS	-0.30103
-4.421855	ELEKTRICITEIT	-0.30103
-4.245757	ELEKTRICITEIT,	-0.30103
-4.421855	ELEKTRISCHE	-0.30103
-4.421855	ELEKTROMAGNETISCHE	-0.30103
-4.421855	ELEKTRONSPINRESONANTIEDATERING	-0.30103
-4.120814	ELEMENT	-0.39794
-4.421855	ELEMENT,	-0.30103
-3.819779	ELEMENTEN	-0.3357921
-4.245757	ELEMENTEN.	-0.30103
-4.421855	ELEMENTEN.MORGAN	-0.30103
-4.421855	ELEVELD.	-0.30103
-4.421855	ELF	-0.30103
-3.877772	ELK	-0.3424227
-3.307892	ELKAAR	-0.3099848
-4.421855	ELKAAR)	-0.30103
-4.421855	ELKAAR,	-0.30103
-4.421855	ELKAAR.	-0.30103
-4.421855	ELKAARS	-0.30103
-3.643686	ELKE	-0.30103
-4.421855	ELLESMERE,	-0.30103
-4.421855	ELSEVIER	-0.30103
-4.421855	EMENDATUS	-0.30103
-4.421855	EMIL	-0.30103
-4.421855	EMISSIEHANDEL	-0.30103
-4.421855	EMMEN.	-0.30103
